{"learner":{"attributes":{"scikit_learn":"{\"_estimator_type\": \"classifier\"}"},"feature_names":[],"feature_types":[],"gradient_booster":{"model":{"cats":{"enc":[],"feature_segments":[],"sorted_idx":[]},"gbtree_model_param":{"num_parallel_tree":"1","num_trees":"100"},"iteration_indptr":[0,1,2,3,4,5,6,7,8,9,10,11,12,13,14,15,16,17,18,19,20,21,22,23,24,25,26,27,28,29,30,31,32,33,34,35,36,37,38,39,40,41,42,43,44,45,46,47,48,49,50,51,52,53,54,55,56,57,58,59,60,61,62,63,64,65,66,67,68,69,70,71,72,73,74,75,76,77,78,79,80,81,82,83,84,85,86,87,88,89,90,91,92,93,94,95,96,97,98,99,100],"tree_info":[0,0,0,0,0,0,0,0,0,0,0,0,0,0,0,0,0,0,0,0,0,0,0,0,0,0,0,0,0,0,0,0,0,0,0,0,0,0,0,0,0,0,0,0,0,0,0,0,0,0,0,0,0,0,0,0,0,0,0,0,0,0,0,0,0,0,0,0,0,0,0,0,0,0,0,0,0,0,0,0,0,0,0,0,0,0,0,0,0,0,0,0,0,0,0,0,0,0,0,0],"trees":[{"base_weights":[-2.4914803E-8,4.981282E0,-1.0327168E0,7.4721336E0,-3.1919503E-1,4.443056E0,7.716129E0,2.528755E-1,4.901019E0,2.331732E0,5.8225894E-1,4.3360063E-1,1.5733634E0],"categories":[],"categories_nodes":[],"categories_segments":[],"categories_sizes":[],"default_left":[0,0,0,0,0,0,1,0,0,0,0,0,0],"id":0,"left_children":[1,-1,3,5,-1,7,9,-1,11,-1,-1,-1,-1],"loss_changes":[3.879684E5,0E0,5.6721445E3,2.3472656E1,0E0,9.36026E0,7.992676E0,0E0,7.911072E-1,0E0,0E0,0E0,0E0],"parents":[2147483647,0,0,2,2,3,3,5,5,6,6,8,8],"right_children":[2,-1,4,6,-1,8,10,-1,12,-1,-1,-1,-1],"split_conditions":[-1.5474296E0,4.981282E0,-1.5335909E0,-1.3192862E0,-3.1919503E-1,1.3267821E0,8.498365E-1,2.528755E-1,-8.5932E-1,2.331732E0,5.8225894E-1,4.3360063E-1,1.5733634E0],"split_indices":[12,0,12,7,0,1,15,0,2,0,0,0,0],"split_type":[0,0,0,0,0,0,0,0,0,0,0,0,0],"sum_hessian":[2.2623348E4,1.3238052E3,2.1299541E4,7.7145615E1,2.1222396E4,7.182913E0,6.99627E1,1.1311673E0,6.0517454E0,6.894465E1,1.0180506E0,1.0180506E0,5.0336947E0],"tree_param":{"num_deleted":"0","num_feature":"18","num_nodes":"13","size_leaf_vector":"1"}},{"base_weights":[-7.79242E-1,1.0261151E0,-3.139409E-1,3.3200184E-1,4.9656424E-1,3.2268307E-1,7.1656495E-1,7.558437E-1,2.4716592E-1,1.3293171E0,5.875872E-1,-4.6970367E-1,9.3511736E-1,-6.433271E-2,3.663819E-1,1.562906E0,-7.466443E-2,4.0486625E-1,9.9928194E-1,-3.1177938E-1,1.2155465E-1,-1.4170529E-1,3.12182E-1,1.1514676E-1,-1.5485854E-1,8.8395365E-2,4.8596436E-1,6.27904E-1,2.4880388E-1,-2.0592879E-1,1.9895844E-1,3.097674E-1,8.219476E-2,3.5047764E-1,1.63791E-2],"categories":[],"categories_nodes":[],"categories_segments":[],"categories_sizes":[],"default_left":[0,0,0,0,0,0,0,0,0,0,0,0,0,0,1,0,0,0,0,0,0,0,0,0,0,0,0,0,0,0,0,0,0,0,0],"id":1,"left_children":[1,3,-1,-1,5,7,9,11,13,15,17,19,21,23,25,27,29,31,33,-1,-1,-1,-1,-1,-1,-1,-1,-1,-1,-1,-1,-1,-1,-1,-1],"loss_changes":[8.83147E3,1.00146484E2,0E0,0E0,1.1760849E1,5.600258E0,1.0091309E1,6.102977E0,5.673251E0,7.7021637E0,8.279491E0,2.392032E0,3.8801537E0,8.897714E0,9.429152E0,5.993248E0,2.3753424E0,6.423869E0,5.4921227E0,0E0,0E0,0E0,0E0,0E0,0E0,0E0,0E0,0E0,0E0,0E0,0E0,0E0,0E0,0E0,0E0],"parents":[2147483647,0,0,1,1,4,4,5,5,6,6,7,7,8,8,9,9,10,10,11,11,12,12,13,13,14,14,15,15,16,16,17,17,18,18],"right_children":[2,4,-1,-1,6,8,10,12,14,16,18,20,22,24,26,28,30,32,34,-1,-1,-1,-1,-1,-1,-1,-1,-1,-1,-1,-1,-1,-1,-1,-1],"split_conditions":[-1.5335909E0,-1.5474296E0,-3.139409E-1,3.3200184E-1,1.0765E-1,-1.0432115E0,1.3406734E0,-1.2660886E0,-7.29141E-1,1.4154851E0,5.638403E-1,4.449117E-1,3.6735648E-1,-1.2552838E0,-1.8478397E-1,8.013854E-1,1.7596253E0,-1.2091136E0,1.7204913E0,-3.1177938E-1,1.2155465E-1,-1.4170529E-1,3.12182E-1,1.1514676E-1,-1.5485854E-1,8.8395365E-2,4.8596436E-1,6.27904E-1,2.4880388E-1,-2.0592879E-1,1.9895844E-1,3.097674E-1,8.219476E-2,3.5047764E-1,1.63791E-2],"split_indices":[12,12,0,0,4,2,1,0,5,3,2,9,16,5,14,4,3,2,2,0,0,0,0,0,0,0,0,0,0,0,0,0,0,0,0],"split_type":[0,0,0,0,0,0,0,0,0,0,0,0,0,0,0,0,0,0,0,0,0,0,0,0,0,0,0,0,0,0,0,0,0,0,0],"sum_hessian":[1.8302562E4,2.3594656E3,1.5943097E4,2.04698E3,3.1248553E2,1.7591498E2,1.3657056E2,2.4778496E1,1.5113647E2,2.2129663E1,1.14440895E2,2.9553237E0,2.1823174E1,4.195996E1,1.0917652E2,1.8875961E1,3.2537034E0,8.063596E1,3.380493E1,1.6762074E0,1.2791163E0,1.2791163E0,2.0544056E1,2.1141994E1,2.0817965E1,1.0443534E2,4.741182E0,9.88171E0,8.99425E0,1.8169541E0,1.4367492E0,1.2724194E1,6.7911766E1,2.8474926E1,5.330005E0],"tree_param":{"num_deleted":"0","num_feature":"18","num_nodes":"35","size_leaf_vector":"1"}},{"base_weights":[-7.646382E-1,9.512446E-1,-3.101731E-1,3.2286927E-1,3.4259358E-1,2.4891213E-1,5.7244563E-1,9.8218757E-1,2.0936882E-1,8.044121E-1,2.2186433E-1,1.2218444E0,-1.1794115E-1,1.2866938E0,1.8727116E-1,1.308216E0,5.599132E-1,-1.5302975E-1,8.568933E-1,5.0326216E-1,5.910132E-2,4.9987713E-1,1.3076694E-1,4.308717E-1,5.1162805E-2,2.1558373E-1,5.6058735E-1,2.1374823E-1,-1.5792388E-1,2.671178E-1,-1.1313539E-1,-1.1994505E-1,3.1813747E-1],"categories":[],"categories_nodes":[],"categories_segments":[],"categories_sizes":[],"default_left":[0,0,0,0,0,0,0,0,0,0,0,0,0,0,0,0,0,0,0,0,0,0,0,0,0,0,0,0,0,0,0,0,0],"id":2,"left_children":[1,3,-1,-1,5,7,9,11,13,15,17,19,-1,21,23,25,27,29,31,-1,-1,-1,-1,-1,-1,-1,-1,-1,-1,-1,-1,-1,-1],"loss_changes":[6.379266E3,1.4211755E2,0E0,0E0,6.7601852E0,6.4493237E0,7.307514E0,4.261817E0,4.973571E0,6.044468E0,9.186182E0,4.3460245E0,0E0,6.404195E-1,4.263996E0,4.349594E0,6.804449E0,6.12625E0,4.074747E0,0E0,0E0,0E0,0E0,0E0,0E0,0E0,0E0,0E0,0E0,0E0,0E0,0E0,0E0],"parents":[2147483647,0,0,1,1,4,4,5,5,6,6,7,7,8,8,9,9,10,10,11,11,13,13,14,14,15,15,16,16,17,17,18,18],"right_children":[2,4,-1,-1,6,8,10,12,14,16,18,20,-1,22,24,26,28,30,32,-1,-1,-1,-1,-1,-1,-1,-1,-1,-1,-1,-1,-1,-1],"split_conditions":[-1.5335909E0,-1.5474296E0,-3.101731E-1,3.2286927E-1,5.3310096E-1,-1.5366216E0,2.740235E-1,1.6513737E0,-2.1765642E0,-8.365691E-1,6.230646E-1,5.779713E-1,-1.1794115E-1,-2.277055E-1,-2.267156E0,3.2103926E-1,1.1133621E0,6.3621026E-1,1.2445431E0,5.0326216E-1,5.910132E-2,4.9987713E-1,1.3076694E-1,4.308717E-1,5.1162805E-2,2.1558373E-1,5.6058735E-1,2.1374823E-1,-1.5792388E-1,2.671178E-1,-1.1313539E-1,-1.1994505E-1,3.1813747E-1],"split_indices":[12,12,0,0,4,7,6,1,5,8,8,11,0,4,2,3,3,4,1,0,0,0,0,0,0,0,0,0,0,0,0,0,0],"split_type":[0,0,0,0,0,0,0,0,0,0,0,0,0,0,0,0,0,0,0,0,0,0,0,0,0,0,0,0,0,0,0,0,0],"sum_hessian":[1.3803632E4,1.8720205E3,1.1931611E4,1.552456E3,3.195645E2,2.2851213E2,9.105239E1,1.0472674E1,2.1803946E2,5.4016922E1,3.703547E1,9.013606E0,1.4590683E0,3.232209E0,2.1480725E2,1.6227869E1,3.7789055E1,2.3764776E1,1.3270693E1,5.798444E0,3.2151625E0,1.572314E0,1.659895E0,1.717546E0,2.1308969E2,9.020126E0,7.207742E0,3.343679E1,4.352266E0,3.6757896E0,2.0088987E1,1.7155634E0,1.1555129E1],"tree_param":{"num_deleted":"0","num_feature":"18","num_nodes":"33","size_leaf_vector":"1"}},{"base_weights":[-7.5133634E-1,8.7927413E-1,-3.074447E-1,3.1643897E-1,2.4316698E-1,1.1040406E0,2.2380072E-1,1.3971596E0,1.7510153E-2,3.8656232E-1,2.0924276E-1,1.2683354E-1,4.9768838E-1,1.9262175E-1,9.8355675E-1,1.9828455E-1,4.8660006E-2,4.232612E-1,-8.823781E-2],"categories":[],"categories_nodes":[],"categories_segments":[],"categories_sizes":[],"default_left":[0,0,0,0,0,0,0,0,0,0,0,0,0,0,0,0,0,0,0],"id":3,"left_children":[1,3,-1,-1,5,7,9,11,-1,-1,13,-1,-1,15,17,-1,-1,-1,-1],"loss_changes":[4.638363E3,1.6656897E2,0E0,0E0,5.1617336E0,2.0282955E0,4.667948E0,6.5899944E-1,0E0,0E0,3.8702297E0,0E0,0E0,4.3102493E0,3.9011397E0,0E0,0E0,0E0,0E0],"parents":[2147483647,0,0,1,1,4,4,5,5,6,6,7,7,10,10,13,13,14,14],"right_children":[2,4,-1,-1,6,8,10,12,-1,-1,14,-1,-1,16,18,-1,-1,-1,-1],"split_conditions":[-1.5335909E0,-1.5474296E0,-3.074447E-1,3.1643897E-1,-2.0344207E0,1.5298856E0,-2.267156E0,-2.5499558E0,1.7510153E-2,3.8656232E-1,2.1578233E0,1.2683354E-1,4.9768838E-1,-1.4480128E0,5.962934E-1,1.9828455E-1,4.8660006E-2,4.232612E-1,-8.823781E-2],"split_indices":[12,12,0,0,5,1,2,5,0,0,4,0,0,7,5,0,0,0,0],"split_type":[0,0,0,0,0,0,0,0,0,0,0,0,0,0,0,0,0,0,0],"sum_hessian":[1.0398337E4,1.4931669E3,8.90517E3,1.1697397E3,3.2342703E2,5.8835135E0,3.1754352E2,4.332821E0,1.5506926E0,3.1027591E0,3.1444077E2,1.4714E0,2.8614209E0,3.090555E2,5.385252E0,1.7586979E1,2.9146854E2,3.9574602E0,1.4277918E0],"tree_param":{"num_deleted":"0","num_feature":"18","num_nodes":"19","size_leaf_vector":"1"}},{"base_weights":[-7.381442E-1,8.052318E-1,-3.054536E-1,3.1182146E-1,1.7347135E-1,1.17685154E-1,3.7113875E-1,-2.1686142E-2,3.270866E-1,2.1984647E-1,1.1303812E0,-4.1364816E-1,7.2613E-2,-3.1053883E-1,3.9289498E-1,4.7974747E-1,-1.074873E-1,1.4478533E0,2.2607878E-1,-1.7421177E-1,1.2014961E-1,7.16698E-2,-6.663341E-2,-2.9252017E-1,1.4915702E-1,-1.5968671E-1,1.3674311E-1,-8.694742E-2,2.2881676E-1,-1.0254399E-1,1.853653E-1,5.396452E-1,1.22427225E-1,3.473661E-1,-1.651187E-1],"categories":[],"categories_nodes":[],"categories_segments":[],"categories_sizes":[],"default_left":[0,0,0,0,0,0,0,0,0,0,0,0,0,0,0,0,0,0,0,0,0,0,0,0,0,0,0,0,0,0,0,0,0,0,0],"id":4,"left_children":[1,3,-1,-1,5,7,9,11,13,15,17,19,21,23,25,27,29,31,33,-1,-1,-1,-1,-1,-1,-1,-1,-1,-1,-1,-1,-1,-1,-1,-1],"loss_changes":[3.3881929E3,1.7797443E2,0E0,0E0,3.5606155E0,7.489401E0,7.9620304E0,5.7541647E0,4.4235487E0,5.227759E0,3.0130367E0,4.337629E0,6.212685E0,5.9323053E0,5.6771603E0,7.646555E0,4.927145E0,2.3410301E0,3.6821778E0,0E0,0E0,0E0,0E0,0E0,0E0,0E0,0E0,0E0,0E0,0E0,0E0,0E0,0E0,0E0,0E0],"parents":[2147483647,0,0,1,1,4,4,5,5,6,6,7,7,8,8,9,9,10,10,11,11,12,12,13,13,14,14,15,15,16,16,17,17,18,18],"right_children":[2,4,-1,-1,6,8,10,12,14,16,18,20,22,24,26,28,30,32,34,-1,-1,-1,-1,-1,-1,-1,-1,-1,-1,-1,-1,-1,-1,-1,-1],"split_conditions":[-1.5335909E0,-1.5474296E0,-3.054536E-1,3.1182146E-1,1.0169507E0,4.9984872E-1,1.1557447E0,-5.775755E-1,-1.3679141E0,1.9743727E-1,4.6193615E-1,1.0249016E0,8.682356E-2,1.567472E-1,-1.4352026E0,-9.313505E-1,8.915844E-1,1.5432574E0,-3.3092007E-1,-1.7421177E-1,1.2014961E-1,7.16698E-2,-6.663341E-2,-2.9252017E-1,1.4915702E-1,-1.5968671E-1,1.3674311E-1,-8.694742E-2,2.2881676E-1,-1.0254399E-1,1.853653E-1,5.396452E-1,1.22427225E-1,3.473661E-1,-1.651187E-1],"split_indices":[12,12,0,0,0,8,11,11,4,7,8,2,0,2,0,8,9,1,6,0,0,0,0,0,0,0,0,0,0,0,0,0,0,0,0],"split_type":[0,0,0,0,0,0,0,0,0,0,0,0,0,0,0,0,0,0,0,0,0,0,0,0,0,0,0,0,0,0,0,0,0,0,0],"sum_hessian":[7.8365435E3,1.2032267E3,6.633317E3,8.7736926E2,3.2585745E2,2.5537907E2,7.047836E1,1.5386656E2,1.0151252E2,5.9843136E1,1.0635226E1,2.9182129E1,1.2468443E2,9.148902E0,9.236362E1,3.3097946E1,2.6745188E1,7.4268284E0,3.2083979E0,2.4451557E1,4.730572E0,7.983191E1,4.485252E1,4.9057283E0,4.2431736E0,5.4060535E0,8.6957565E1,8.891803E0,2.4206144E1,2.0614576E1,6.130612E0,5.0067954E0,2.420033E0,1.235057E0,1.9733409E0],"tree_param":{"num_deleted":"0","num_feature":"18","num_nodes":"35","size_leaf_vector":"1"}},{"base_weights":[-7.2422546E-1,7.284235E-1,-3.0399045E-1,3.0844462E-1,1.2326434E-1,8.2584447E-1,1.0807348E-1,1.0709397E0,2.7189432E-3,6.888794E-1,8.9310355E-2,6.624866E-2,3.9687648E-1,1.0395739E0,-4.316612E-2,-6.5262675E-1,1.07308455E-1,5.8371812E-2,4.294249E-1,2.1907781E-1,-1.860288E-1,-3.7348145E-1,2.019186E-1,4.1616898E-2,-7.937604E-2],"categories":[],"categories_nodes":[],"categories_segments":[],"categories_sizes":[],"default_left":[0,0,0,0,0,0,0,0,0,0,0,0,0,0,0,0,0,0,0,0,0,0,0,0,0],"id":5,"left_children":[1,3,-1,-1,5,7,9,11,-1,13,15,-1,-1,17,19,21,23,-1,-1,-1,-1,-1,-1,-1,-1],"loss_changes":[2.4852568E3,1.7809143E2,0E0,0E0,3.396379E0,1.3438458E0,3.4347808E0,8.200984E-1,0E0,2.5841765E0,4.2354765E0,0E0,0E0,1.9489546E0,2.310785E0,6.749885E0,3.604765E0,0E0,0E0,0E0,0E0,0E0,0E0,0E0,0E0],"parents":[2147483647,0,0,1,1,4,4,5,5,6,6,7,7,9,9,10,10,13,13,14,14,15,15,16,16],"right_children":[2,4,-1,-1,6,8,10,12,-1,14,16,-1,-1,18,20,22,24,-1,-1,-1,-1,-1,-1,-1,-1],"split_conditions":[-1.5335909E0,-1.5474296E0,-3.0399045E-1,3.0844462E-1,-2.0344207E0,1.5298856E0,-5.905927E-1,-7.077938E-1,2.7189432E-3,4.449117E-1,-5.9577394E-2,6.624866E-2,3.9687648E-1,-3.0697918E-1,-6.7419636E-1,3.2988557E-1,1.4434965E0,5.8371812E-2,4.294249E-1,2.1907781E-1,-1.860288E-1,-3.7348145E-1,2.019186E-1,4.1616898E-2,-7.937604E-2],"split_indices":[12,12,0,0,5,1,16,10,0,9,16,0,0,2,6,4,3,0,0,0,0,0,0,0,0],"split_type":[0,0,0,0,0,0,0,0,0,0,0,0,0,0,0,0,0,0,0,0,0,0,0,0,0],"sum_hessian":[5.9155615E3,9.8156024E2,4.9340015E3,6.5597015E2,3.2559006E2,5.7613645E0,3.1982867E2,4.192217E0,1.5691477E0,8.891165E0,3.109375E2,1.3875177E0,2.804699E0,5.7273297E0,3.1638353E0,6.5290504E0,3.0440848E2,2.2885885E0,3.4387412E0,1.2381788E0,1.9256563E0,4.5548687E0,1.9741813E0,2.812757E2,2.3132778E1],"tree_param":{"num_deleted":"0","num_feature":"18","num_nodes":"25","size_leaf_vector":"1"}},{"base_weights":[-7.0815057E-1,6.485019E-1,-3.029073E-1,3.0592358E-1,8.8625096E-2,9.7532475E-1,7.682595E-2,7.8091964E-2,3.3630458E-1,6.046282E-2,6.3547456E-1,1.9969998E-3,2.099677E-1,-1.3539727E-1,4.1735408E-1,-7.3403075E-2,2.3401396E-2,1.9392226E-2,1.7918406E-1,2.2975908E-1,-2.6216283E-1],"categories":[],"categories_nodes":[],"categories_segments":[],"categories_sizes":[],"default_left":[0,0,0,0,0,0,0,0,0,0,0,0,0,0,0,0,0,0,0,0,0],"id":6,"left_children":[1,3,-1,-1,5,7,9,-1,-1,11,13,15,17,19,-1,-1,-1,-1,-1,-1,-1],"loss_changes":[1.8341094E3,1.6943784E2,0E0,0E0,3.3388164E0,1.4564586E-1,2.9150262E0,0E0,0E0,2.7529879E0,5.483208E0,4.28369E0,4.9453373E0,4.2704153E0,0E0,0E0,0E0,0E0,0E0,0E0,0E0],"parents":[2147483647,0,0,1,1,4,4,5,5,6,6,9,9,10,10,11,11,12,12,13,13],"right_children":[2,4,-1,-1,6,8,10,-1,-1,12,14,16,18,20,-1,-1,-1,-1,-1,-1,-1],"split_conditions":[-1.5335909E0,-1.5474296E0,-3.029073E-1,3.0592358E-1,-2.267156E0,-3.8394738E-2,1.9887357E0,7.8091964E-2,3.3630458E-1,5.3310096E-1,1.5023803E0,-9.313505E-1,7.4773186E-1,-1.0356101E0,4.1735408E-1,-7.3403075E-2,2.3401396E-2,1.9392226E-2,1.7918406E-1,2.2975908E-1,-2.6216283E-1],"split_indices":[12,12,0,0,2,7,7,0,0,4,1,8,2,8,0,0,0,0,0,0,0],"split_type":[0,0,0,0,0,0,0,0,0,0,0,0,0,0,0,0,0,0,0,0,0],"sum_hessian":[4.480838E3,8.146257E2,3.6662122E3,4.893355E2,3.2529013E2,3.1993616E0,3.220908E2,1.0132504E0,2.1861112E0,3.1400174E2,8.08905E0,2.2645639E2,8.754535E1,4.410683E0,3.6783676E0,5.2819096E1,1.7363728E2,6.450773E1,2.303762E1,1.9697096E0,2.4409733E0],"tree_param":{"num_deleted":"0","num_feature":"18","num_nodes":"21","size_leaf_vector":"1"}},{"base_weights":[-6.8897253E-1,5.678352E-1,-3.0209756E-1,3.0398867E-1,6.539341E-2,3.291555E-1,5.6534547E-2,1.1361283E-2,2.31642E-1,-1.6618619E-2,5.0908583E-1,3.0946958E-1,-3.5282505E-1,1.4912344E-2,-6.676043E-2,-1.1825385E-1,2.7589288E-1,1.1082917E-1,-3.4885037E-1],"categories":[],"categories_nodes":[],"categories_segments":[],"categories_sizes":[],"default_left":[0,0,0,0,0,0,0,0,0,0,0,0,0,0,0,0,0,0,0],"id":7,"left_children":[1,3,-1,-1,5,-1,7,9,11,13,15,17,-1,-1,-1,-1,-1,-1,-1],"loss_changes":[1.3642057E3,1.5427916E2,0E0,0E0,2.9099417E0,0E0,2.5557528E0,3.6036E0,7.6249967E0,3.3624306E0,5.469578E0,6.0437264E0,0E0,0E0,0E0,0E0,0E0,0E0,0E0],"parents":[2147483647,0,0,1,1,4,4,6,6,7,7,8,8,9,9,10,10,11,11],"right_children":[2,4,-1,-1,6,-1,8,10,12,14,16,18,-1,-1,-1,-1,-1,-1,-1],"split_conditions":[-1.5335909E0,-1.5474296E0,-3.0209756E-1,3.0398867E-1,-1.7085581E0,3.291555E-1,1.6254271E0,2.822919E0,2.822919E0,1.5432574E0,-9.787412E-1,1.7677966E0,-3.5282505E-1,1.4912344E-2,-6.676043E-2,-1.1825385E-1,2.7589288E-1,1.1082917E-1,-3.4885037E-1],"split_indices":[12,12,0,0,8,0,1,17,17,1,8,2,0,0,0,0,0,0,0],"split_type":[0,0,0,0,0,0,0,0,0,0,0,0,0,0,0,0,0,0,0],"sum_hessian":[3.4107356E3,6.8860254E2,2.7221328E3,3.644594E2,3.2414313E2,1.7135562E0,3.224296E2,2.5715503E2,6.527457E1,2.4438345E2,1.2771561E1,6.2594147E1,2.6804209E0,1.8541812E2,5.8965336E1,4.0034575E0,8.768103E0,6.0864464E1,1.7296818E0],"tree_param":{"num_deleted":"0","num_feature":"18","num_nodes":"19","size_leaf_vector":"1"}},{"base_weights":[-6.658747E-1,4.8496038E-1,-3.0148345E-1,3.0244327E-1,4.5165677E-2,2.8708907E-2,5.413664E-1,4.910567E-2,-5.1799536E-1,9.013616E-1,-5.351987E-1,6.444011E-2,-6.32591E-1,1.7922346E-1,-8.401403E-1,1.2950212E0,-1.9565389E-1,1.1503335E-2,-2.524675E-1,1.3832003E-1,1.3159775E-2,2.0879941E-2,-3.4590837E-1,-3.3101642E-1,1.0131451E-1,1.0511987E-1,4.7449073E-1],"categories":[],"categories_nodes":[],"categories_segments":[],"categories_sizes":[],"default_left":[0,0,0,0,1,0,0,1,0,0,0,0,0,0,0,0,0,0,0,0,0,0,0,0,0,0,0],"id":8,"left_children":[1,3,-1,-1,5,7,9,11,13,15,17,19,21,-1,23,25,-1,-1,-1,-1,-1,-1,-1,-1,-1,-1,-1],"loss_changes":[1.02133203E3,1.3710071E2,0E0,0E0,2.6373594E0,3.543624E0,4.502491E0,3.229795E0,4.6104918E0,5.826419E0,5.992572E-1,2.4218688E0,2.5667033E0,0E0,3.2523823E0,1.2960739E0,0E0,0E0,0E0,0E0,0E0,0E0,0E0,0E0,0E0,0E0,0E0],"parents":[2147483647,0,0,1,1,4,4,5,5,6,6,7,7,8,8,9,9,10,10,11,11,12,12,14,14,15,15],"right_children":[2,4,-1,-1,6,8,10,12,14,16,18,20,22,-1,24,26,-1,-1,-1,-1,-1,-1,-1,-1,-1,-1,-1],"split_conditions":[-1.5335909E0,-1.5474296E0,-3.0148345E-1,3.0244327E-1,2.8080285E-1,2.2316024E0,6.3916886E-1,-2.2733425E-1,-9.031076E-1,1.0262861E0,5.4376118E-2,4.9942935E-1,1.8768905E-1,1.7922346E-1,1.1121455E0,-2.0696914E-4,-1.9565389E-1,1.1503335E-2,-2.524675E-1,1.3832003E-1,1.3159775E-2,2.0879941E-2,-3.4590837E-1,-3.3101642E-1,1.0131451E-1,1.0511987E-1,4.7449073E-1],"split_indices":[12,12,0,0,15,9,3,15,5,7,8,14,7,0,7,10,0,0,0,0,0,0,0,0,0,0,0],"split_type":[0,0,0,0,0,0,0,0,0,0,0,0,0,0,0,0,0,0,0,0,0,0,0,0,0,0,0],"sum_hessian":[2.6151167E3,5.9504584E2,2.0200708E3,2.7116873E2,3.2387714E2,3.1450427E2,9.37285E0,3.0407004E2,1.0434244E1,7.146019E0,2.2268314E0,2.9826614E2,5.803885E0,2.1467555E0,8.287489E0,5.834095E0,1.3119237E0,1.0799222E0,1.1469092E0,1.3653122E1,2.8461304E2,2.8392885E0,2.9645963E0,6.8252783E0,1.4622103E0,1.8754735E0,3.9586217E0],"tree_param":{"num_deleted":"0","num_feature":"18","num_nodes":"27","size_leaf_vector":"1"}},{"base_weights":[-6.376743E-1,4.0569073E-1,-3.0100688E-1,3.011363E-1,3.1010758E-2,5.2150315E-1,1.5823964E-2,-1.722895E-1,8.6907446E-1,-8.293956E-1,2.525559E-2,-2.2471006E-1,1.2637994E-1,1.1630245E0,-2.317567E-2,-3.3528674E-1,-2.5159318E-2,7.8079826E-1,1.5522612E-2,4.026563E-1,1.254244E-1,5.4307695E-2,2.789624E-1,9.7532634E-4,1.8714286E-1],"categories":[],"categories_nodes":[],"categories_segments":[],"categories_sizes":[],"default_left":[0,0,0,0,0,0,0,0,0,0,0,0,0,0,0,0,0,0,0,0,0,0,0,0,0],"id":9,"left_children":[1,3,-1,-1,5,7,9,11,13,15,17,-1,-1,19,-1,-1,-1,21,23,-1,-1,-1,-1,-1,-1],"loss_changes":[7.728987E2,1.178793E2,0E0,0E0,2.4092116E0,2.4925017E0,2.538597E0,1.7112842E0,1.9363875E0,6.6154456E-1,2.2918243E0,0E0,0E0,1.2315798E-1,0E0,0E0,0E0,1.8613434E-1,2.3145423E0,0E0,0E0,0E0,0E0,0E0,0E0],"parents":[2147483647,0,0,1,1,4,4,5,5,6,6,7,7,8,8,9,9,10,10,13,13,17,17,18,18],"right_children":[2,4,-1,-1,6,8,10,12,14,16,18,-1,-1,20,-1,-1,-1,22,24,-1,-1,-1,-1,-1,-1],"split_conditions":[-1.5335909E0,-1.5474296E0,-3.0100688E-1,3.011363E-1,-5.905927E-1,-1.2857363E0,1.1087826E0,-8.229046E-2,7.632796E-1,-1.2759937E-1,-2.267156E0,-2.2471006E-1,1.2637994E-1,4.449117E-1,-2.317567E-2,-3.3528674E-1,-2.5159318E-2,-3.8394738E-2,2.1578233E0,4.026563E-1,1.254244E-1,5.4307695E-2,2.789624E-1,9.7532634E-4,1.8714286E-1],"split_indices":[12,12,0,0,16,16,1,0,0,4,2,0,0,9,0,0,0,7,4,0,0,0,0,0,0],"split_type":[0,0,0,0,0,0,0,0,0,0,0,0,0,0,0,0,0,0,0,0,0,0,0,0,0],"sum_hessian":[2.0236687E3,5.251629E2,1.4985059E3,2.0162785E2,3.2353506E2,8.715295E0,3.1481976E2,3.0771835E0,5.6381116E0,2.514825E0,3.1230493E2,1.4278417E0,1.649342E0,4.1271415E0,1.5109701E0,1.4537148E0,1.0611103E0,2.9644113E0,3.093405E2,2.6806893E0,1.4464519E0,1.0309496E0,1.9334618E0,3.0420877E2,5.131736E0],"tree_param":{"num_deleted":"0","num_feature":"18","num_nodes":"25","size_leaf_vector":"1"}},{"base_weights":[-6.0324585E-1,3.3475673E-1,-3.0062333E-1,2.9994473E-1,2.3754552E-2,6.6159385E-1,1.3158703E-2,7.620909E-3,8.31507E-1,4.0594846E-1,-6.783887E-3,3.1419474E-1,5.6377057E-2,6.660507E-1,-4.307406E-1,-5.5923987E-2,1.74125E-1,2.416948E-1,-1.3050054E-1,1.8070039E-1,-2.986534E-1,-5.2313138E-2,3.3229396E-2,1.0692469E-1,-5.0580844E-2],"categories":[],"categories_nodes":[],"categories_segments":[],"categories_sizes":[],"default_left":[0,0,0,0,0,0,0,0,0,0,0,0,0,0,0,0,0,0,0,0,0,0,0,0,0],"id":10,"left_children":[1,3,-1,-1,5,7,9,-1,11,13,15,-1,-1,17,19,21,23,-1,-1,-1,-1,-1,-1,-1,-1],"loss_changes":[5.932592E2,9.793174E1,0E0,0E0,2.1791146E0,5.4848886E-1,2.5050602E0,0E0,3.764181E-1,3.649549E0,2.7211099E0,0E0,0E0,2.2225947E0,3.091897E0,4.769971E0,4.145544E0,0E0,0E0,0E0,0E0,0E0,0E0,0E0,0E0],"parents":[2147483647,0,0,1,1,4,4,5,5,6,6,8,8,9,9,10,10,13,13,14,14,15,15,16,16],"right_children":[2,4,-1,-1,6,8,10,-1,12,14,16,-1,-1,18,20,22,24,-1,-1,-1,-1,-1,-1,-1,-1],"split_conditions":[-1.5335909E0,-1.5474296E0,-3.0062333E-1,2.9994473E-1,-2.1765642E0,-7.077938E-1,-1.5379515E0,7.620909E-3,1.1557447E0,3.303395E-1,1.0169507E0,3.1419474E-1,5.6377057E-2,1.3382571E0,-2.7566433E-1,4.9984872E-1,4.714143E-1,2.416948E-1,-1.3050054E-1,1.8070039E-1,-2.986534E-1,-5.2313138E-2,3.3229396E-2,1.0692469E-1,-5.0580844E-2],"split_indices":[12,12,0,0,5,10,8,0,11,17,0,0,0,9,2,8,8,0,0,0,0,0,0,0,0],"split_type":[0,0,0,0,0,0,0,0,0,0,0,0,0,0,0,0,0,0,0,0,0,0,0,0,0],"sum_hessian":[1.5839116E3,4.7259283E2,1.1113187E3,1.4987645E2,3.227164E2,4.2694416E0,3.1844696E2,1.142223E0,3.1272185E0,1.4451621E1,3.0399533E2,1.8721302E0,1.2550883E0,1.1180023E1,3.2715983E0,2.3960306E2,6.4392265E1,1.0160145E1,1.0198779E0,1.1328619E0,2.1387362E0,1.4004059E2,9.956248E1,4.2008682E1,2.2383585E1],"tree_param":{"num_deleted":"0","num_feature":"18","num_nodes":"25","size_leaf_vector":"1"}},{"base_weights":[-5.628731E-1,2.7126682E-1,-3.0029735E-1,2.9876006E-1,1.794883E-2,4.8104045E-3,4.8355672E-1,2.641747E-1,-2.452363E-2,8.1025535E-1,-2.0879056E-1,-6.5365714E-1,3.8901582E-1,-3.5631877E-1,1.4772482E-2,-1.03476085E-1,1.1817988E0,-3.435314E-1,6.862169E-2,2.2488315E-1,2.47866E-2,3.2171953E-1,-1.4843161E-1,-2.3511827E-2,4.0671486E-2,4.172778E-1,6.5438785E-2],"categories":[],"categories_nodes":[],"categories_segments":[],"categories_sizes":[],"default_left":[0,0,0,0,0,0,0,0,0,0,0,0,0,0,0,0,0,0,0,0,0,0,0,0,0,0,0],"id":11,"left_children":[1,3,-1,-1,5,7,9,11,13,15,-1,17,19,21,23,-1,25,-1,-1,-1,-1,-1,-1,-1,-1,-1,-1],"loss_changes":[4.600307E2,7.964732E1,0E0,0E0,1.9711732E0,2.4012606E0,3.9716997E0,3.9286644E0,3.704164E0,3.5782475E0,0E0,2.088721E0,3.12606E0,6.480998E0,2.8755136E0,0E0,8.6858463E-1,0E0,0E0,0E0,0E0,0E0,0E0,0E0,0E0,0E0,0E0],"parents":[2147483647,0,0,1,1,4,4,5,5,6,6,7,7,8,8,9,9,11,11,12,12,13,13,14,14,16,16],"right_children":[2,4,-1,-1,6,8,10,12,14,16,-1,18,20,22,24,-1,26,-1,-1,-1,-1,-1,-1,-1,-1,-1,-1],"split_conditions":[-1.5335909E0,-1.5474296E0,-3.0029735E-1,2.9876006E-1,1.9887357E0,-1.2091136E0,6.6977787E-1,-1.0114673E0,-8.160122E-1,-8.0202043E-1,-2.0879056E-1,1.7410618E-1,1.9788739E-4,-1.4756927E0,1.0765E-1,-1.03476085E-1,8.5925853E-1,-3.435314E-1,6.862169E-2,2.2488315E-1,2.47866E-2,3.2171953E-1,-1.4843161E-1,-2.3511827E-2,4.0671486E-2,4.172778E-1,6.5438785E-2],"split_indices":[12,12,0,0,7,2,2,7,2,2,0,5,11,3,4,0,3,0,0,0,0,0,0,0,0,0,0],"split_type":[0,0,0,0,0,0,0,0,0,0,0,0,0,0,0,0,0,0,0,0,0,0,0,0,0,0,0],"sum_hessian":[1.2570571E3,4.3301456E2,8.240426E2,1.11407936E2,3.2160663E2,3.1376324E2,7.843374E0,3.1067383E1,2.8269586E2,6.3873158E0,1.4560579E0,3.2125802E0,2.7854803E1,2.9081326E1,2.5361453E2,1.57186E0,4.8154554E0,1.8721635E0,1.3404168E0,1.2131127E1,1.5723675E1,1.973276E0,2.710805E1,1.4339635E2,1.1021818E2,3.5924823E0,1.2229733E0],"tree_param":{"num_deleted":"0","num_feature":"18","num_nodes":"27","size_leaf_vector":"1"}},{"base_weights":[-5.1681083E-1,2.1685708E-1,-2.999991E-1,2.974785E-1,1.3769474E-2,-1.6556628E-1,4.6046417E-2,2.2075614E-1,-4.4670737E-1,9.829567E-1,3.230967E-2,-2.594369E-2,1.1258867E0,-9.004471E-1,-1.4432688E-1,3.9170754E-1,4.111935E-2,4.238021E-2,-2.9322794E-1,-3.6660835E-1,1.0220348E-1,6.6439785E-2,4.1100895E-1,-3.1803995E-1,3.250002E-2,2.0888197E-1,-1.2948975E-1,3.0674374E-1,9.6712215E-3],"categories":[],"categories_nodes":[],"categories_segments":[],"categories_sizes":[],"default_left":[0,0,0,0,0,0,0,0,0,0,1,0,0,0,0,0,0,0,0,0,0,0,0,0,0,0,0,0,0],"id":12,"left_children":[1,3,-1,-1,5,7,9,11,13,15,17,19,21,23,25,-1,-1,27,-1,-1,-1,-1,-1,-1,-1,-1,-1,-1,-1],"loss_changes":[3.5993716E2,6.351213E1,0E0,0E0,1.8651677E0,5.438488E0,3.4784627E0,4.802822E0,3.8196907E0,8.876736E-1,2.7852678E0,8.2116E0,7.12585E-1,1.9385872E0,4.7601714E0,0E0,0E0,2.632497E0,0E0,0E0,0E0,0E0,0E0,0E0,0E0,0E0,0E0,0E0,0E0],"parents":[2147483647,0,0,1,1,4,4,5,5,6,6,7,7,8,8,9,9,10,10,11,11,12,12,13,13,14,14,17,17],"right_children":[2,4,-1,-1,6,8,10,12,14,16,18,20,22,24,26,-1,-1,28,-1,-1,-1,-1,-1,-1,-1,-1,-1,-1,-1],"split_conditions":[-1.5335909E0,-1.5474296E0,-2.999991E-1,2.974785E-1,-9.334718E-1,-1.03364564E-1,-1.4742168E0,1.2706217E0,-2.9581574E-1,1.8673383E-1,1.1324431E0,-8.176128E-1,-1.4756927E0,1.4397358E0,1.4493495E-1,3.9170754E-1,4.111935E-2,-9.1746527E-1,-2.9322794E-1,-3.6660835E-1,1.0220348E-1,6.6439785E-2,4.1100895E-1,-3.1803995E-1,3.250002E-2,2.0888197E-1,-1.2948975E-1,3.0674374E-1,9.6712215E-3],"split_indices":[12,12,0,0,3,6,15,0,5,4,14,8,3,0,5,0,0,3,0,0,0,0,0,0,0,0,0,0,0],"split_type":[0,0,0,0,0,0,0,0,0,0,0,0,0,0,0,0,0,0,0,0,0,0,0,0,0,0,0,0,0],"sum_hessian":[1.01373126E3,4.0274936E2,6.109819E2,8.284187E1,3.1990747E2,4.8165096E1,2.717424E2,2.0378E1,2.7787096E1,2.907111E0,2.6883527E2,1.6776722E1,3.601279E0,1.0321385E1,1.746571E1,1.7108133E0,1.1962975E0,2.6712912E2,1.7061677E0,3.3885508E0,1.3388171E1,1.1708853E0,2.4303937E0,8.866887E0,1.4544986E0,4.08636E0,1.337935E1,1.7138269E0,2.6541528E2],"tree_param":{"num_deleted":"0","num_feature":"18","num_nodes":"29","size_leaf_vector":"1"}},{"base_weights":[-4.652501E-1,1.7112869E-1,-2.9970148E-1,2.959922E-1,1.0904608E-2,1.7747866E-2,-2.4564436E-1,1.3562621E-1,-3.340343E-2,4.722802E-1,2.6660487E-2,1.5001698E-2,-3.375351E-1,-1.0870208E-1,2.285146E-1,-1.5398476E-1,3.4313213E-2,-4.7143428E-3,2.8950065E-1,-3.048728E-2,-3.3438256E-1],"categories":[],"categories_nodes":[],"categories_segments":[],"categories_sizes":[],"default_left":[0,0,0,0,0,0,0,0,0,0,0,0,0,0,0,0,0,0,0,0,0],"id":13,"left_children":[1,3,-1,-1,5,7,-1,9,11,13,15,17,19,-1,-1,-1,-1,-1,-1,-1,-1],"loss_changes":[2.83638E2,4.9841213E1,0E0,0E0,1.8308476E0,1.9234573E0,0E0,3.52759E0,3.284198E0,5.962107E0,3.5619483E0,5.65041E0,5.501174E0,0E0,0E0,0E0,0E0,0E0,0E0,0E0,0E0],"parents":[2147483647,0,0,1,1,4,4,5,5,7,7,8,8,9,9,10,10,11,11,12,12],"right_children":[2,4,-1,-1,6,8,-1,10,12,14,16,18,20,-1,-1,-1,-1,-1,-1,-1,-1],"split_conditions":[-1.5335909E0,-1.5474296E0,-2.9970148E-1,2.959922E-1,2.6546068E0,-4.873129E-1,-2.4564436E-1,-7.476014E-1,1.3434032E0,-5.660642E-1,-4.3584603E-1,1.2865344E0,8.703262E-1,-1.0870208E-1,2.285146E-1,-1.5398476E-1,3.4313213E-2,-4.7143428E-3,2.8950065E-1,-3.048728E-2,-3.3438256E-1],"split_indices":[12,12,0,0,2,7,0,6,8,4,6,8,2,0,0,0,0,0,0,0,0],"split_type":[0,0,0,0,0,0,0,0,0,0,0,0,0,0,0,0,0,0,0,0,0],"sum_hessian":[8.335359E2,3.8052612E2,4.5300977E2,6.163863E1,3.1888748E2,3.172495E2,1.6379628E0,9.550543E1,2.217441E2,2.2538286E1,7.296714E1,1.9211761E2,2.962647E1,5.738565E0,1.679972E1,9.519304E0,6.3447838E1,1.8705313E2,5.0644927E0,2.3594286E1,6.0321846E0],"tree_param":{"num_deleted":"0","num_feature":"18","num_nodes":"21","size_leaf_vector":"1"}},{"base_weights":[-4.1095418E-1,1.3177782E-1,-2.993778E-1,2.9418263E-1,6.63402E-3,5.686986E-1,-2.8188908E-3,7.4508536E-1,-4.2532203E-3,4.029257E-1,-1.5083978E-2,2.7350992E-1,5.9202094E-2,-2.0667405E-1,7.284797E-1,-5.411105E-1,-2.8453423E-3,1.1337297E-1,-2.2660612E-1,-1.5781548E-2,3.2123774E-1,-3.0476022E-1,1.4729673E-1,1.9926986E-1,-4.1236333E-3],"categories":[],"categories_nodes":[],"categories_segments":[],"categories_sizes":[],"default_left":[0,0,0,0,0,0,0,0,0,0,0,0,0,0,0,0,0,0,0,0,0,0,0,0,0],"id":14,"left_children":[1,3,-1,-1,5,7,9,11,-1,13,15,-1,-1,17,19,21,23,-1,-1,-1,-1,-1,-1,-1,-1],"loss_changes":[2.2345946E2,3.8779545E1,0E0,0E0,1.6976674E0,5.539062E-1,1.5733517E0,1.9204926E-1,0E0,1.9916108E0,1.972682E0,0E0,0E0,1.5711851E0,1.7323143E0,3.912716E0,2.1955233E0,0E0,0E0,0E0,0E0,0E0,0E0,0E0,0E0],"parents":[2147483647,0,0,1,1,4,4,5,5,6,6,7,7,9,9,10,10,13,13,14,14,15,15,16,16],"right_children":[2,4,-1,-1,6,8,10,12,-1,14,16,-1,-1,18,20,22,24,-1,-1,-1,-1,-1,-1,-1,-1],"split_conditions":[-1.5335909E0,-1.5474296E0,-2.993778E-1,2.9418263E-1,-2.100719E0,7.632796E-1,-5.905927E-1,1.1557447E0,-4.2532203E-3,-1.2857363E0,-5.9577394E-2,2.7350992E-1,5.9202094E-2,-2.0696914E-4,-4.6528107E-1,3.2988557E-1,2.1663862E-1,1.1337297E-1,-2.2660612E-1,-1.5781548E-2,3.2123774E-1,-3.0476022E-1,1.4729673E-1,1.9926986E-1,-4.1236333E-3],"split_indices":[12,12,0,0,5,0,16,11,0,16,16,0,0,10,3,4,16,0,0,0,0,0,0,0,0],"split_type":[0,0,0,0,0,0,0,0,0,0,0,0,0,0,0,0,0,0,0,0,0,0,0,0,0],"sum_hessian":[7.000362E2,3.6412796E2,3.3590826E2,4.590765E1,3.182203E2,4.2848425E0,3.1393546E2,3.0757766E0,1.2090662E0,8.276806E0,3.0565866E2,1.8489108E0,1.2268656E0,3.0085182E0,5.2682877E0,5.9672685E0,2.9969138E2,1.6072893E0,1.401229E0,1.8631954E0,3.4050922E0,4.0979667E0,1.8693017E0,3.8545983E0,2.958368E2],"tree_param":{"num_deleted":"0","num_feature":"18","num_nodes":"25","size_leaf_vector":"1"}},{"base_weights":[-3.540657E-1,1.0315839E-1,-2.9899922E-1,2.91915E-1,6.4477813E-3,2.3287408E-1,1.350074E-4,-6.114205E-1,8.097939E-3,4.305031E-2,-3.1967863E-1,6.580514E-1,7.4985076E-4,5.4235738E-2,2.3478557E-1,8.632055E-3,-5.040849E-2],"categories":[],"categories_nodes":[],"categories_segments":[],"categories_sizes":[],"default_left":[0,0,0,0,0,0,0,0,0,0,0,0,0,0,0,0,0],"id":15,"left_children":[1,3,-1,-1,5,-1,7,9,11,-1,-1,13,15,-1,-1,-1,-1],"loss_changes":[1.7680542E2,2.963174E1,0E0,0E0,1.5455114E0,0E0,1.5460862E0,1.5520784E0,1.4962243E0,0E0,0E0,6.673014E-2,1.4752597E0,0E0,0E0,0E0,0E0],"parents":[2147483647,0,0,1,1,4,4,6,6,7,7,8,8,11,11,12,12],"right_children":[2,4,-1,-1,6,-1,8,10,12,-1,-1,14,16,-1,-1,-1,-1],"split_conditions":[-1.5335909E0,-1.5474296E0,-2.9899922E-1,2.91915E-1,-2.424079E0,2.3287408E-1,-2.1579707E0,-5.050755E-1,-2.267156E0,4.305031E-2,-3.1967863E-1,-3.816365E-2,1.1133621E0,5.4235738E-2,2.3478557E-1,8.632055E-3,-5.040849E-2],"split_indices":[12,12,0,0,3,0,3,0,2,0,0,6,3,0,0,0,0],"split_type":[0,0,0,0,0,0,0,0,0,0,0,0,0,0,0,0,0],"sum_hessian":[6.0041504E2,3.5129776E2,2.491173E2,3.4241474E1,3.170563E2,1.5868468E0,3.1546945E2,3.0807867E0,3.1238867E2,1.4141881E0,1.6665984E0,2.5022855E0,3.0988638E2,1.025294E0,1.4769917E0,2.664714E2,4.3414986E1],"tree_param":{"num_deleted":"0","num_feature":"18","num_nodes":"17","size_leaf_vector":"1"}},{"base_weights":[-2.9855296E-1,7.940795E-2,-2.9853246E-1,2.8903466E-1,5.1427474E-3,2.1518445E-1,-9.464839E-4,-1.3323389E-1,3.179968E-2,5.4907743E-2,-5.4729176E-1,1.9077992E-1,-4.2657442E-2,-2.0017019E-2,3.2013607E-1,-3.6139295E-1,-8.041997E-2,-1.0020752E-1,1.0645173E-1,-3.5853717E-2,7.889438E-2],"categories":[],"categories_nodes":[],"categories_segments":[],"categories_sizes":[],"default_left":[0,0,0,0,0,0,0,0,0,1,0,0,0,0,0,0,0,0,0,0,0],"id":16,"left_children":[1,3,-1,-1,5,-1,7,9,11,13,15,17,19,-1,-1,-1,-1,-1,-1,-1,-1],"loss_changes":[1.3908667E2,2.2527586E1,0E0,0E0,1.3779659E0,0E0,1.372765E0,4.928311E0,3.0152714E0,5.5058045E0,3.2995362E0,7.1107583E0,4.1146502E0,0E0,0E0,0E0,0E0,0E0,0E0,0E0,0E0],"parents":[2147483647,0,0,1,1,4,4,6,6,7,7,8,8,9,9,10,10,11,11,12,12],"right_children":[2,4,-1,-1,6,-1,8,10,12,14,16,18,20,-1,-1,-1,-1,-1,-1,-1,-1],"split_conditions":[-1.5335909E0,-1.5474296E0,-2.9853246E-1,2.8903466E-1,-1.7085581E0,2.1518445E-1,-5.775755E-1,6.859551E-1,-5.050755E-1,-6.4026123E-1,-1.1303915E0,-8.650035E-1,9.346685E-1,-2.0017019E-2,3.2013607E-1,-3.6139295E-1,-8.041997E-2,-1.0020752E-1,1.0645173E-1,-3.5853717E-2,7.889438E-2],"split_indices":[12,12,0,0,8,0,11,6,0,14,8,8,6,0,0,0,0,0,0,0,0],"split_type":[0,0,0,0,0,0,0,0,0,0,0,0,0,0,0,0,0,0,0,0,0],"sum_hessian":[5.270029E2,3.4220404E2,1.8479886E2,2.5591688E1,3.1661237E2,1.6940774E0,3.149183E2,6.1877586E1,2.5304071E2,4.3141937E1,1.873565E1,8.0211494E1,1.7282921E2,3.934784E1,3.794098E0,4.5976467E0,1.4138003E1,1.8856352E1,6.1355145E1,1.3858902E2,3.424019E1],"tree_param":{"num_deleted":"0","num_feature":"18","num_nodes":"21","size_leaf_vector":"1"}},{"base_weights":[-2.4699615E-1,6.0815714E-2,-2.979372E-1,2.853675E-1,3.8464854E-3,9.722353E-3,-2.1629797E-1,-7.8083907E-4,4.956996E-1,-1.5379772E-1,3.2213744E-2,8.706938E-1,-1.14253215E-1,1.2478702E-1,-9.714302E-2,1.3267022E-1,6.2727666E-4,4.5439746E-2,3.171104E-1],"categories":[],"categories_nodes":[],"categories_segments":[],"categories_sizes":[],"default_left":[0,0,0,0,0,0,0,0,0,0,0,0,0,0,0,0,0,0,0],"id":17,"left_children":[1,3,-1,-1,5,7,-1,9,11,13,15,17,-1,-1,-1,-1,-1,-1,-1],"loss_changes":[1.0864336E2,1.7022297E1,0E0,0E0,1.3548598E0,1.6077778E0,0E0,1.5662473E0,2.5219002E0,5.464879E0,3.1512654E0,5.061531E-1,0E0,0E0,0E0,0E0,0E0,0E0,0E0],"parents":[2147483647,0,0,1,1,4,4,5,5,7,7,8,8,9,9,10,10,11,11],"right_children":[2,4,-1,-1,6,8,-1,10,12,14,16,18,-1,-1,-1,-1,-1,-1,-1],"split_conditions":[-1.5335909E0,-1.5474296E0,-2.979372E-1,2.853675E-1,2.6546068E0,2.0649548E0,-2.1629797E-1,-8.3143026E-1,1.059059E0,-6.7419636E-1,-6.3735116E-1,-1.0124176E0,-1.14253215E-1,1.2478702E-1,-9.714302E-2,1.3267022E-1,6.2727666E-4,4.5439746E-2,3.171104E-1],"split_indices":[12,12,0,0,2,2,0,3,8,6,3,0,0,0,0,0,0,0,0],"split_type":[0,0,0,0,0,0,0,0,0,0,0,0,0,0,0,0,0,0,0],"sum_hessian":[4.717843E2,3.34646E2,1.3713829E2,1.9179525E1,3.1546646E2,3.139084E2,1.5580915E0,3.082448E2,5.663553E0,5.4026814E1,2.5421802E2,3.9712753E0,1.6922778E0,1.2083918E1,4.1942898E1,1.6462036E1,2.3775598E2,1.1902102E0,2.7810652E0],"tree_param":{"num_deleted":"0","num_feature":"18","num_nodes":"19","size_leaf_vector":"1"}},{"base_weights":[-1.9997069E-1,4.693818E-2,-2.9716307E-1,2.8072402E-1,3.351044E-3,5.149098E-1,-4.8605544E-3,6.6791856E-1,5.4494757E-3,-1.322665E-1,3.1818647E-2,2.4063757E-1,6.1196238E-2,-2.1429281E-1,6.368945E-1,5.1317967E-2,-6.195376E-1,-1.04670465E-1,7.156549E-2,3.6435375E-1,4.2373374E-2,2.1773601E-2,-1.5014844E-1,3.0893648E-2,-3.1243327E-1],"categories":[],"categories_nodes":[],"categories_segments":[],"categories_sizes":[],"default_left":[0,0,0,0,0,0,0,0,0,0,0,0,0,0,0,0,0,0,0,0,0,0,0,0,0],"id":18,"left_children":[1,3,-1,-1,5,7,9,11,-1,13,15,-1,-1,17,19,21,23,-1,-1,-1,-1,-1,-1,-1,-1],"loss_changes":[8.43457E1,1.2782757E1,0E0,0E0,1.3283055E0,3.6756277E-1,1.4604458E0,7.242823E-2,0E0,4.5435615E0,3.1151617E0,0E0,0E0,3.9764857E0,1.8277223E0,2.8124862E0,2.281573E0,0E0,0E0,0E0,0E0,0E0,0E0,0E0,0E0],"parents":[2147483647,0,0,1,1,4,4,5,5,6,6,7,7,9,9,10,10,13,13,14,14,15,15,16,16],"right_children":[2,4,-1,-1,6,8,10,12,-1,14,16,-1,-1,18,20,22,24,-1,-1,-1,-1,-1,-1,-1,-1],"split_conditions":[-1.5335909E0,-1.5474296E0,-2.9716307E-1,2.8072402E-1,-2.100719E0,7.632796E-1,-7.789973E-1,1.5158905E0,5.4494757E-3,1.1867939E0,1.6467037E0,2.4063757E-1,6.1196238E-2,9.3239367E-1,1.4430655E0,2.2316024E0,-1.8574287E-1,-1.04670465E-1,7.156549E-2,3.6435375E-1,4.2373374E-2,2.1773601E-2,-1.5014844E-1,3.0893648E-2,-3.1243327E-1],"split_indices":[12,12,0,0,5,0,5,1,0,4,8,0,0,0,4,9,7,0,0,0,0,0,0,0,0],"split_type":[0,0,0,0,0,0,0,0,0,0,0,0,0,0,0,0,0,0,0,0,0,0,0,0,0],"sum_hessian":[4.3086194E2,3.2903845E2,1.0182349E2,1.442487E1,3.146136E2,3.9955761E0,3.10618E2,2.7912247E0,1.2043514E0,6.8852264E1,2.4176575E2,1.5995345E0,1.1916903E0,6.2869057E1,5.983206E0,2.3563295E2,6.132809E0,4.864021E1,1.4228848E1,2.0933385E0,3.8898673E0,2.2772734E2,7.9055986E0,2.5396209E0,3.5931883E0],"tree_param":{"num_deleted":"0","num_feature":"18","num_nodes":"25","size_leaf_vector":"1"}},{"base_weights":[-1.5895166E-1,3.664589E-2,-2.9614624E-1,2.749101E-1,3.2531375E-3,-5.0830394E-3,4.9289954E-1,1.6291006E-2,-3.120371E-1,1.1697763E0,-2.2115491E-1,2.4898078E-3,1.0301424E0,-4.0127605E-1,-7.033654E-2,1.041697E-1,4.2470056E-1,1.4795181E-1,-4.21641E-3,3.7094802E-1,9.137361E-2,2.7622345E-1,-8.374798E-2],"categories":[],"categories_nodes":[],"categories_segments":[],"categories_sizes":[],"default_left":[0,0,0,0,0,0,0,0,0,0,0,0,0,0,0,0,0,0,0,0,0,0,0],"id":19,"left_children":[1,3,-1,-1,5,7,9,11,13,15,-1,17,19,-1,21,-1,-1,-1,-1,-1,-1,-1,-1],"loss_changes":[6.500481E1,9.555991E0,0E0,0E0,1.2862294E0,2.040431E0,5.254316E0,4.068947E0,4.924225E0,2.748189E-1,0E0,2.3455594E0,2.0810986E-1,0E0,3.8663094E0,0E0,0E0,0E0,0E0,0E0,0E0,0E0,0E0],"parents":[2147483647,0,0,1,1,4,4,5,5,6,6,7,7,8,8,9,9,11,11,12,12,14,14],"right_children":[2,4,-1,-1,6,8,10,12,14,16,-1,18,20,-1,22,-1,-1,-1,-1,-1,-1,-1,-1],"split_conditions":[-1.5335909E0,-1.5474296E0,-2.9614624E-1,2.749101E-1,2.2578282E0,1.4434965E0,-2.3502164E-1,1.3894745E0,-1.1975309E0,-2.1466668E-1,-2.2115491E-1,-3.8107318E-1,2.157313E-1,-4.0127605E-1,-7.225573E-1,1.041697E-1,4.2470056E-1,1.4795181E-1,-4.21641E-3,3.7094802E-1,9.137361E-2,2.7622345E-1,-8.374798E-2],"split_indices":[12,12,0,0,3,3,2,3,6,5,0,15,6,0,6,0,0,0,0,0,0,0,0],"split_type":[0,0,0,0,0,0,0,0,0,0,0,0,0,0,0,0,0,0,0,0,0,0,0],"sum_hessian":[4.0005493E2,3.243974E2,7.565756E1,1.0896284E1,3.135011E2,3.0922617E2,4.2749233E0,2.8998096E2,1.9245234E1,2.78916E0,1.4857633E0,2.8707553E2,2.9054015E0,2.8058372E0,1.6439396E1,1.1970363E0,1.5921237E0,8.424024E0,2.7865152E2,1.7138096E0,1.1915917E0,2.2676876E0,1.4171709E1],"tree_param":{"num_deleted":"0","num_feature":"18","num_nodes":"23","size_leaf_vector":"1"}},{"base_weights":[-1.2319687E-1,3.0013897E-2,-2.9480594E-1,2.6776165E-1,4.415641E-3,-6.196471E-3,3.9465192E-1,4.9133897E-2,-8.728802E-2,-1.8104006E-1,9.9158025E-1,-2.5378624E-1,1.0714904E-1,5.5300915E-1,-1.9838993E-1,1.5478702E-1,-7.497384E-1,3.4064913E-1,8.526352E-2,-1.9595717E-1,7.272473E-2,-7.6259295E-3,8.149373E-2,4.0540475E-1,6.896862E-2,-4.2900786E-2,-2.6656622E-1,-5.2009437E-2,-2.8005168E-1],"categories":[],"categories_nodes":[],"categories_segments":[],"categories_sizes":[],"default_left":[0,0,0,0,0,0,0,0,0,0,0,0,0,0,0,0,0,0,0,0,0,0,0,0,0,0,0,0,0],"id":20,"left_children":[1,3,-1,-1,5,7,9,11,13,15,17,19,21,23,25,-1,27,-1,-1,-1,-1,-1,-1,-1,-1,-1,-1,-1,-1],"loss_changes":[4.9852448E1,7.107401E0,0E0,0E0,1.3019881E0,1.379423E0,3.0397558E0,3.2400365E0,8.978106E0,2.4014683E0,1.0898256E-1,6.0409355E0,3.3681736E0,4.5122814E0,3.9619045E0,0E0,1.777947E-1,0E0,0E0,0E0,0E0,0E0,0E0,0E0,0E0,0E0,0E0,0E0,0E0],"parents":[2147483647,0,0,1,1,4,4,5,5,6,6,7,7,8,8,9,9,10,10,11,11,12,12,13,13,14,14,16,16],"right_children":[2,4,-1,-1,6,8,10,12,14,16,18,20,22,24,26,-1,28,-1,-1,-1,-1,-1,-1,-1,-1,-1,-1,-1,-1],"split_conditions":[-1.5335909E0,-1.5474296E0,-2.9480594E-1,2.6776165E-1,1.9887357E0,2.6742452E-1,1.5023803E0,1.3545647E0,1.3406734E0,-1.0356101E0,6.842612E-1,9.546006E-3,1.6674131E-1,-4.484337E-1,1.5631869E0,1.5478702E-1,-1.7610071E-3,3.4064913E-1,8.526352E-2,-1.9595717E-1,7.272473E-2,-7.6259295E-3,8.149373E-2,4.0540475E-1,6.896862E-2,-4.2900786E-2,-2.6656622E-1,-5.2009437E-2,-2.8005168E-1],"split_indices":[12,12,0,0,7,7,1,1,1,8,4,4,2,9,5,0,9,0,0,0,0,0,0,0,0,0,0,0,0],"split_type":[0,0,0,0,0,0,0,0,0,0,0,0,0,0,0,0,0,0,0,0,0,0,0,0,0,0,0,0,0],"sum_hessian":[3.7735504E2,3.2108432E2,5.627072E1,8.278421E0,3.1280588E2,3.054827E2,7.323196E0,1.8181847E2,1.2366424E2,4.082576E0,3.2406201E0,2.8682297E1,1.5313617E2,1.7696888E1,1.0596735E2,1.8760407E0,2.206535E0,2.1898465E0,1.0507737E0,1.5715862E1,1.2966435E1,8.526561E1,6.787055E1,4.181958E0,1.351493E1,9.921251E1,6.75484E0,1.0032624E0,1.2032726E0],"tree_param":{"num_deleted":"0","num_feature":"18","num_nodes":"29","size_leaf_vector":"1"}},{"base_weights":[-9.4994776E-2,2.4158774E-2,-2.930408E-1,2.5917736E-1,4.3351683E-3,2.8946793E-1,-9.750445E-3,3.5913348E-1,3.8533162E-2,-2.5271845E-1,1.6722046E-2,-1.4011931E-1,2.696084E-1,-7.908314E-1,-4.4564236E-2,6.761885E-1,1.9614361E-3,-1.0909974E-1,2.512727E-1,-3.145142E-1,8.2086116E-2,-1.5528685E-1,1.09048724E-1,3.8767886E-1,-5.620641E-2,-3.7146804E-3,1.7461681E-1],"categories":[],"categories_nodes":[],"categories_segments":[],"categories_sizes":[],"default_left":[0,0,0,0,0,0,0,0,0,0,0,0,0,0,0,0,0,0,0,0,0,0,0,0,0,0,0],"id":21,"left_children":[1,3,-1,-1,5,7,9,-1,11,13,15,17,-1,19,21,23,25,-1,-1,-1,-1,-1,-1,-1,-1,-1,-1],"loss_changes":[3.787413E1,5.2955956E0,0E0,0E0,1.2558838E0,3.3064246E0,1.9227316E0,0E0,2.0567656E0,3.2542465E0,2.6260011E0,2.7675748E0,0E0,2.5161629E0,4.4805007E0,3.3842018E0,2.212217E0,0E0,0E0,0E0,0E0,0E0,0E0,0E0,0E0,0E0,0E0],"parents":[2147483647,0,0,1,1,4,4,5,5,6,6,8,8,9,9,10,10,11,11,13,13,14,14,15,15,16,16],"right_children":[2,4,-1,-1,6,8,10,-1,12,14,16,18,-1,20,22,24,26,-1,-1,-1,-1,-1,-1,-1,-1,-1,-1],"split_conditions":[-1.5335909E0,-1.5474296E0,-2.930408E-1,2.5917736E-1,-1.5379515E0,-1.1887242E0,-1.2156947E0,3.5913348E-1,1.2269996E0,-6.741895E-1,-1.168304E0,1.533161E0,2.696084E-1,5.9036565E-1,-1.5715556E-1,2.0605145E-1,2.0577466E0,-1.0909974E-1,2.512727E-1,-3.145142E-1,8.2086116E-2,-1.5528685E-1,1.09048724E-1,3.8767886E-1,-5.620641E-2,-3.7146804E-3,1.7461681E-1],"split_indices":[12,12,0,0,8,4,8,0,7,0,8,4,0,7,3,2,3,0,0,0,0,0,0,0,0,0,0],"split_type":[0,0,0,0,0,0,0,0,0,0,0,0,0,0,0,0,0,0,0,0,0,0,0,0,0,0,0],"sum_hessian":[3.5923923E2,3.1733255E2,4.190669E1,6.336252E0,3.109963E2,1.3719717E1,2.9727658E2,2.1548624E0,1.1564855E1,2.8367695E1,2.6890887E2,1.02691E1,1.2957542E0,7.1317334E0,2.1235962E1,4.906109E0,2.6400278E2,8.869222E0,1.3998785E0,5.754502E0,1.3772314E0,9.710365E0,1.1525597E1,2.5735822E0,2.3325267E0,2.5858746E2,5.415306E0],"tree_param":{"num_deleted":"0","num_feature":"18","num_nodes":"27","size_leaf_vector":"1"}},{"base_weights":[-7.058853E-2,2.1432266E-2,-2.907259E-1,2.4910812E-1,6.04146E-3,-1.877497E-1,1.230785E-2,-3.0696023E-2,1.0247035E-1,-9.910837E-2,1.4265198E-1,1.4750434E-1,-7.4097717E-1,-6.5515004E-2,2.8528092E-2,6.771125E-2,-2.4353114E-1,-4.86431E-2,8.84301E-2,-2.3651117E-2,-3.980353E-1],"categories":[],"categories_nodes":[],"categories_segments":[],"categories_sizes":[],"default_left":[0,0,0,0,0,0,0,0,0,0,0,0,0,0,0,0,0,0,0,0,0],"id":22,"left_children":[1,3,-1,-1,5,-1,7,9,11,13,15,17,19,-1,-1,-1,-1,-1,-1,-1,-1],"loss_changes":[2.8715607E1,3.9266262E0,0E0,0E0,1.2387495E0,0E0,1.2005916E0,2.5030088E0,3.906262E0,3.5201015E0,4.923214E0,4.4130397E0,1.9251225E0,0E0,0E0,0E0,0E0,0E0,0E0,0E0,0E0],"parents":[2147483647,0,0,1,1,4,4,6,6,7,7,8,8,9,9,10,10,11,11,12,12],"right_children":[2,4,-1,-1,6,-1,8,10,12,14,16,18,20,-1,-1,-1,-1,-1,-1,-1,-1],"split_conditions":[-1.5335909E0,-1.5474296E0,-2.907259E-1,2.4910812E-1,1.0948222E0,-1.877497E-1,7.073798E-1,8.600181E-1,1.809454E0,3.7306044E-1,1.7335181E0,-5.5505246E-1,-2.4927272E-3,-6.5515004E-2,2.8528092E-2,6.771125E-2,-2.4353114E-1,-4.86431E-2,8.84301E-2,-2.3651117E-2,-3.980353E-1],"split_indices":[12,12,0,0,1,0,10,8,4,3,11,4,8,0,0,0,0,0,0,0,0],"split_type":[0,0,0,0,0,0,0,0,0,0,0,0,0,0,0,0,0,0,0,0,0],"sum_hessian":[3.4605704E2,3.147932E2,3.1263803E1,4.8888264E0,3.099044E2,2.072297E0,3.078321E2,2.0886938E2,9.8962715E1,1.5007146E2,5.879792E1,9.472994E1,4.232775E0,9.289358E1,5.7177883E1,5.4793407E1,4.0045104E0,3.0498964E1,6.423098E1,2.5195248E0,1.7132504E0],"tree_param":{"num_deleted":"0","num_feature":"18","num_nodes":"21","size_leaf_vector":"1"}},{"base_weights":[-5.6507394E-2,1.383785E-2,-2.8771153E-1,2.3771532E-1,1.6945296E-3,6.925806E-2,-7.739998E-2,3.885825E-2,9.061123E-1,-5.220752E-1,9.833733E-3,-5.72239E-1,6.799022E-2,-1.3802652E-2,3.6767066E-1,3.19382E-1,-8.9157635E-1,8.994399E-1,-2.5467478E-2,-2.7403706E-1,2.0117675E-1,1.8459569E-1,9.314213E-3,2.4260516E-1,-4.896483E-2,-3.1737104E-1,1.8990527E-1,5.660772E-2,3.6391956E-1,1.7153437E-1,-2.257196E-2],"categories":[],"categories_nodes":[],"categories_segments":[],"categories_sizes":[],"default_left":[0,0,0,0,0,0,0,0,0,0,0,0,0,0,0,0,0,0,0,0,0,0,0,0,0,0,0,0,0,0,0],"id":23,"left_children":[1,3,-1,-1,5,7,9,11,13,15,17,19,21,-1,-1,23,25,27,29,-1,-1,-1,-1,-1,-1,-1,-1,-1,-1,-1,-1],"loss_changes":[2.1405537E1,2.9631743E0,0E0,0E0,1.660659E0,4.2281165E0,5.558882E0,2.936308E0,1.8294778E0,7.5910225E0,3.812554E0,3.7981396E0,3.1400695E0,0E0,0E0,1.9990032E0,4.8771954E0,8.039074E-1,3.5222113E0,0E0,0E0,0E0,0E0,0E0,0E0,0E0,0E0,0E0,0E0,0E0,0E0],"parents":[2147483647,0,0,1,1,4,4,5,5,6,6,7,7,8,8,9,9,10,10,11,11,12,12,15,15,16,16,17,17,18,18],"right_children":[2,4,-1,-1,6,8,10,12,14,16,18,20,22,-1,-1,24,26,28,30,-1,-1,-1,-1,-1,-1,-1,-1,-1,-1,-1,-1],"split_conditions":[-1.5335909E0,-1.5474296E0,-2.8771153E-1,2.3771532E-1,1.8898545E-1,1.3096182E-1,3.5105148E-1,-1.5197597E0,-1.0585862E0,-3.6985618E-1,8.708239E-1,1.6116399E0,1.2862861E0,-1.3802652E-2,3.6767066E-1,-3.713839E-2,1.1557447E0,-5.901374E-1,-1.5411618E0,-2.7403706E-1,2.0117675E-1,1.8459569E-1,9.314213E-3,2.4260516E-1,-4.896483E-2,-3.1737104E-1,1.8990527E-1,5.660772E-2,3.6391956E-1,1.7153437E-1,-2.257196E-2],"split_indices":[12,12,0,0,3,3,3,0,4,4,13,1,1,0,0,2,11,8,5,0,0,0,0,0,0,0,0,0,0,0,0],"split_type":[0,0,0,0,0,0,0,0,0,0,0,0,0,0,0,0,0,0,0,0,0,0,0,0,0,0,0,0,0,0,0],"sum_hessian":[3.359457E2,3.1256815E2,2.3377577E1,3.813599E0,3.0875455E2,1.6658224E2,1.4217229E2,1.617528E2,4.829444E0,2.2498919E1,1.1967337E2,6.511842E0,1.5524097E2,1.4283396E0,3.4011045E0,6.9065104E0,1.5592408E1,3.633311E0,1.1604006E2,5.3170624E0,1.194779E0,8.825807E0,1.4641516E2,3.0939221E0,3.812588E0,1.4334662E1,1.257746E0,1.6027521E0,2.030559E0,8.119646E0,1.0792042E2],"tree_param":{"num_deleted":"0","num_feature":"18","num_nodes":"31","size_leaf_vector":"1"}},{"base_weights":[-3.9645363E-2,1.44005725E-2,-2.838261E-1,2.2511643E-1,4.801895E-3,1.0856746E-1,-3.1308647E-2,4.155697E-1,-6.8463616E-2,-6.1488605E-1,-6.672061E-3,-1.5515704E-1,6.869642E-1,-1.8838775E-1,5.543712E-1,-9.0069324E-1,1.5453938E-1,-4.7044676E-2,3.3889145E-1,6.294102E-2,-2.826179E-1,5.445381E-2,2.7555254E-1,3.229146E-1,-8.0388166E-2,2.4205358E-1,-5.7432067E-2,2.5687356E-2,-3.5296392E-1,-1.1276395E-1,1.8136837E-1,7.53128E-3,-1.20795496E-1,-8.3025426E-2,2.6198047E-1],"categories":[],"categories_nodes":[],"categories_segments":[],"categories_sizes":[],"default_left":[0,0,0,0,0,0,0,0,0,0,0,0,0,0,0,0,0,0,0,0,0,0,0,0,0,0,0,0,0,0,0,0,0,0,0],"id":24,"left_children":[1,3,-1,-1,5,7,9,11,13,15,17,19,21,23,25,27,29,31,33,-1,-1,-1,-1,-1,-1,-1,-1,-1,-1,-1,-1,-1,-1,-1,-1],"loss_changes":[1.6136072E1,2.1974638E0,0E0,0E0,1.1595916E0,4.3699827E0,3.2980845E0,4.65388E0,3.9529703E0,2.1826901E0,3.1045828E0,3.149093E0,2.1834202E0,4.7118173E0,1.7686851E0,1.9841051E0,1.0317602E0,5.118506E0,7.900822E0,0E0,0E0,0E0,0E0,0E0,0E0,0E0,0E0,0E0,0E0,0E0,0E0,0E0,0E0,0E0,0E0],"parents":[2147483647,0,0,1,1,4,4,5,5,6,6,7,7,8,8,9,9,10,10,11,11,12,12,13,13,14,14,15,15,16,16,17,17,18,18],"right_children":[2,4,-1,-1,6,8,10,12,14,16,18,20,22,24,26,28,30,32,34,-1,-1,-1,-1,-1,-1,-1,-1,-1,-1,-1,-1,-1,-1,-1,-1],"split_conditions":[-1.5335909E0,-1.5474296E0,-2.838261E-1,2.2511643E-1,-8.081347E-1,1.4620228E0,-7.133533E-1,-2.6535335E-1,1.0756761E0,5.779713E-1,1.4141484E0,6.098132E-1,-3.2922566E-1,5.5920806E-2,-4.7231328E-2,1.3937443E0,1.5432574E0,1.0113205E0,1.5023803E0,6.294102E-2,-2.826179E-1,5.445381E-2,2.7555254E-1,3.229146E-1,-8.0388166E-2,2.4205358E-1,-5.7432067E-2,2.5687356E-2,-3.5296392E-1,-1.1276395E-1,1.8136837E-1,7.53128E-3,-1.20795496E-1,-8.3025426E-2,2.6198047E-1],"split_indices":[12,12,0,0,8,1,8,7,4,11,5,2,3,14,6,1,1,3,1,0,0,0,0,0,0,0,0,0,0,0,0,0,0,0,0],"split_type":[0,0,0,0,0,0,0,0,0,0,0,0,0,0,0,0,0,0,0,0,0,0,0,0,0,0,0,0,0,0,0,0,0,0,0],"sum_hessian":[3.281002E2,3.1056696E2,1.753322E1,3.004673E0,3.075623E2,7.8882545E1,2.2867973E2,2.835781E1,5.052474E1,8.29254E0,2.2038719E2,9.27704E0,1.9080769E1,4.295204E1,7.572697E0,5.922128E0,2.3704112E0,1.9810608E2,2.2281118E1,6.8386827E0,2.438357E0,6.555124E0,1.2525645E1,1.8008844E0,4.1151157E1,5.5963655E0,1.976332E0,1.4450231E0,4.477105E0,1.1636384E0,1.2067728E0,1.6546446E2,3.264161E1,1.057733E1,1.1703788E1],"tree_param":{"num_deleted":"0","num_feature":"18","num_nodes":"35","size_leaf_vector":"1"}},{"base_weights":[-2.9328398E-2,1.221432E-2,-2.788846E-1,2.1176922E-1,4.4698888E-3,5.194943E-1,-3.0236468E-3,2.2346033E-1,2.1308061E-1,-5.5916816E-1,8.002577E-3,1.4296803E-1,-4.092856E-2,7.68695E-2,-2.9176342E-1,5.8678544E-1,-2.3778586E-3,-3.5216756E-2,3.1466618E-1,7.576809E-2,-5.445087E-3],"categories":[],"categories_nodes":[],"categories_segments":[],"categories_sizes":[],"default_left":[0,0,0,0,0,0,0,0,0,0,0,0,0,0,0,0,0,0,0,0,0],"id":25,"left_children":[1,3,-1,-1,5,7,9,-1,11,13,15,-1,-1,-1,-1,17,19,-1,-1,-1,-1],"loss_changes":[1.2041646E1,1.6539551E0,0E0,0E0,1.1827725E0,1.4479661E-1,1.8604814E0,0E0,3.6553264E-1,2.2372804E0,1.7903959E0,0E0,0E0,0E0,0E0,1.8316132E0,1.1848196E0,0E0,0E0,0E0,0E0],"parents":[2147483647,0,0,1,1,4,4,5,5,6,6,8,8,9,9,10,10,15,15,16,16],"right_children":[2,4,-1,-1,6,8,10,-1,12,14,16,-1,-1,-1,-1,18,20,-1,-1,-1,-1],"split_conditions":[-1.5335909E0,-1.5474296E0,-2.788846E-1,2.1176922E-1,-2.1765642E0,-2.0181362E-1,-1.8715923E0,2.2346033E-1,-1.6684747E-1,1.3020124E-1,-1.7023991E0,1.4296803E-1,-4.092856E-2,7.68695E-2,-2.9176342E-1,1.4886276E0,-1.4905608E0,-3.5216756E-2,3.1466618E-1,7.576809E-2,-5.445087E-3],"split_indices":[12,12,0,0,5,6,5,0,0,8,5,0,0,0,0,1,8,0,0,0,0],"split_type":[0,0,0,0,0,0,0,0,0,0,0,0,0,0,0,0,0,0,0,0,0],"sum_hessian":[3.206624E2,3.074614E2,1.3201026E1,2.3993368E0,3.0506207E2,3.3950849E0,3.01667E2,1.1317431E0,2.263342E0,4.898183E0,2.967688E2,1.0832301E0,1.1801118E0,1.7757006E0,3.1224823E0,4.250408E0,2.925184E2,1.9796629E0,2.2707453E0,1.6168331E1,2.7635007E2],"tree_param":{"num_deleted":"0","num_feature":"18","num_nodes":"21","size_leaf_vector":"1"}},{"base_weights":[-2.0775218E-2,1.1019349E-2,-2.7270582E-1,1.98039E-1,4.736647E-3,1.11401705E-2,-5.286676E-1,2.0061857E-1,-8.480445E-3,-3.2328627E-1,5.6868423E-2,2.5936725E-2,8.824651E-1,-3.9251514E-2,2.1446085E-1,-2.4992695E-1,4.733127E-2,-7.816907E-2,3.7357E-1,-3.5043966E-2,3.1953197E-2,1.3993722E-1,-1.6490895E-1],"categories":[],"categories_nodes":[],"categories_segments":[],"categories_sizes":[],"default_left":[0,0,0,0,0,0,0,0,0,0,0,0,0,0,0,0,0,0,0,0,0,0,0],"id":26,"left_children":[1,3,-1,-1,5,7,9,11,13,-1,-1,15,17,19,21,-1,-1,-1,-1,-1,-1,-1,-1],"loss_changes":[8.980178E0,1.2514678E0,0E0,0E0,1.0500417E0,1.1283376E0,1.6421827E0,3.3688738E0,1.8988752E0,0E0,0E0,2.8153787E0,2.7200546E0,2.7596288E0,6.722143E0,0E0,0E0,0E0,0E0,0E0,0E0,0E0,0E0],"parents":[2147483647,0,0,1,1,4,4,5,5,6,6,7,7,8,8,11,11,12,12,13,13,14,14],"right_children":[2,4,-1,-1,6,8,10,12,14,-1,-1,16,18,20,22,-1,-1,-1,-1,-1,-1,-1,-1],"split_conditions":[-1.5335909E0,-1.5474296E0,-2.7270582E-1,1.98039E-1,1.7130507E0,-1.24909E0,-4.655523E-1,-1.3643553E0,1.3382571E0,-3.2328627E-1,5.6868423E-2,-1.0114673E0,-5.775755E-1,4.1507757E-1,8.032357E-1,-2.4992695E-1,4.733127E-2,-7.816907E-2,3.7357E-1,-3.5043966E-2,3.1953197E-2,1.3993722E-1,-1.6490895E-1],"split_indices":[12,12,0,0,8,2,2,2,9,0,0,7,11,3,3,0,0,0,0,0,0,0,0],"split_type":[0,0,0,0,0,0,0,0,0,0,0,0,0,0,0,0,0,0,0,0,0,0,0],"sum_hessian":[3.166252E2,3.0663678E2,9.988423E0,1.9418269E0,3.0469495E2,3.0204797E2,2.646974E0,2.7476788E1,2.745712E2,1.2166693E0,1.4303046E0,2.2699465E1,4.777323E0,2.4199431E2,3.257689E1,2.3124433E0,2.0387022E1,1.2188E0,3.5585227E0,1.5807787E2,8.391643E1,2.4791096E1,7.785793E0],"tree_param":{"num_deleted":"0","num_feature":"18","num_nodes":"23","size_leaf_vector":"1"}},{"base_weights":[-1.6599555E-2,-8.400184E-1,9.3207015E-3,-2.9169458E-1,-5.373926E-2,1.9264816E-1,3.9334367E-3,-4.8679225E-2,6.971534E-2,2.0653816E-2,-4.0069166E-1,8.294657E-1,3.1228743E-2,2.0566995E-1,-1.273048E-1,-5.9582863E-2,-1.1275992E0,-2.3788126E-2,1.0547163E0,-7.987286E-2,3.267796E-1,-1.7420761E-3,1.2139467E-1,-1.3447603E-2,-2.7448127E-1,9.135114E-2,-1.8928337E-1,-3.8407388E-1,-8.536516E-2,3.8134977E-1,3.9974965E-2,-1.1284643E-1,1.9403342E-2,2.4901421E-1,2.5801228E-2],"categories":[],"categories_nodes":[],"categories_segments":[],"categories_sizes":[],"default_left":[0,0,0,0,0,0,0,0,0,0,0,0,0,0,0,0,0,0,0,0,0,0,0,0,0,0,0,0,0,0,0,0,0,0,0],"id":27,"left_children":[1,3,5,-1,-1,-1,7,9,11,13,15,17,19,21,23,25,27,-1,29,31,33,-1,-1,-1,-1,-1,-1,-1,-1,-1,-1,-1,-1,-1,-1],"loss_changes":[6.7030606E0,6.638169E-1,1.0376751E0,0E0,0E0,0E0,1.0539334E0,4.1387734E0,3.9302814E0,3.9227753E0,6.8501997E0,1.4109545E0,4.288735E0,2.6799839E0,5.1372185E0,4.361664E0,7.751627E-1,0E0,8.809686E-1,4.0994716E0,4.250092E0,0E0,0E0,0E0,0E0,0E0,0E0,0E0,0E0,0E0,0E0,0E0,0E0,0E0,0E0],"parents":[2147483647,0,0,1,1,2,2,6,6,7,7,8,8,9,9,10,10,11,11,12,12,13,13,14,14,15,15,16,16,18,18,19,19,20,20],"right_children":[2,4,6,-1,-1,-1,8,10,12,14,16,18,20,22,24,26,28,-1,30,32,34,-1,-1,-1,-1,-1,-1,-1,-1,-1,-1,-1,-1,-1,-1],"split_conditions":[1.0948222E0,9.1717684E-1,-2.424079E0,-2.9169458E-1,-5.373926E-2,1.9264816E-1,1.7673542E-1,-1.781646E-2,2.1737811E-1,-2.1769488E-1,5.779713E-1,-6.722792E-1,1.5839266E0,-7.872987E-1,1.2507895E0,3.836992E-1,1.4808565E-1,-2.3788126E-2,7.073798E-1,5.978203E-1,4.8588637E-1,-1.7420761E-3,1.2139467E-1,-1.3447603E-2,-2.7448127E-1,9.135114E-2,-1.8928337E-1,-3.8407388E-1,-8.536516E-2,3.8134977E-1,3.9974965E-2,-1.1284643E-1,1.9403342E-2,2.4901421E-1,2.5801228E-2],"split_indices":[1,5,3,0,0,0,2,2,2,4,11,7,1,4,5,6,2,0,10,2,2,0,0,0,0,0,0,0,0,0,0,0,0,0,0],"split_type":[0,0,0,0,0,0,0,0,0,0,0,0,0,0,0,0,0,0,0,0,0,0,0,0,0,0,0,0,0,0,0,0,0,0,0],"sum_hessian":[3.1269348E2,8.584317E0,3.0410916E2,6.759892E0,1.8244255E0,1.5692586E0,3.0253992E2,1.6824043E2,1.3429947E2,1.4134265E2,2.6897793E1,5.4842744E0,1.2881519E2,6.263283E1,7.8709816E1,1.9043434E1,7.8543572E0,1.2180609E0,4.2662134E0,9.415194E1,3.4663254E1,3.0833492E1,3.179934E1,7.22055E1,6.5043178E0,1.1916796E1,7.1266384E0,6.2111435E0,1.6432137E0,3.147397E0,1.1188166E0,3.03474E1,6.380454E1,1.0425186E1,2.4238066E1],"tree_param":{"num_deleted":"0","num_feature":"18","num_nodes":"35","size_leaf_vector":"1"}},{"base_weights":[-1.3635483E-2,6.4162747E-3,-2.5829178E-1,-2.142691E-2,1.3465342E-1,1.6880922E-1,-6.185292E-2,-9.548258E-2,4.9028334E-1,4.7024024E-1,-1.17366664E-1,-4.4057142E-2,-8.730854E-1,-2.178262E-1,6.782024E-1,8.9870113E-1,1.6877049E-1,1.8375999E-1,1.026877E0,-5.782201E-1,2.7396178E-1,-5.728075E-2,2.6409325E-1,-3.319737E-1,-2.0930137E-2,4.6968564E-1,-3.1437477E-1,3.0351037E-1,-1.9349666E-2,-1.650023E-2,1.0292668E0,1.0292437E0,-2.2165856E-1,-2.3447125E-1,1.4306621E-1,-1.6330065E-2,3.8522568E-1,-3.901424E-1,-2.7045125E-2,2.8370875E-1,-3.349885E-2,-7.4226437E-3,-1.19956456E-1,3.0513412E-1,-6.302528E-2,1.5324889E-1,-1.3681148E-1,4.08093E-1,6.733974E-2,1.0050158E-2,4.0129757E-1,-2.2469775E-1,9.68037E-2],"categories":[],"categories_nodes":[],"categories_segments":[],"categories_sizes":[],"default_left":[0,0,0,0,0,0,1,0,0,0,0,1,0,0,0,0,0,0,0,0,0,0,0,0,0,0,0,0,0,0,0,0,0,0,0,0,0,0,0,0,0,0,0,0,0,0,0,0,0,0,0,0,0],"id":28,"left_children":[1,3,-1,5,7,9,11,13,15,17,19,21,23,25,27,29,31,33,35,37,39,41,-1,-1,-1,43,45,-1,-1,-1,47,49,51,-1,-1,-1,-1,-1,-1,-1,-1,-1,-1,-1,-1,-1,-1,-1,-1,-1,-1,-1,-1],"loss_changes":[5.286055E0,1.0904661E0,0E0,1.9417111E0,4.505206E0,3.87492E0,2.962078E0,3.3574665E0,2.680069E0,3.2820902E0,4.399272E0,2.5493395E0,7.496793E-1,2.1414328E0,1.2722785E0,1.2106147E0,4.69549E0,4.7834606E0,2.0661378E0,3.8026338E0,3.5755026E0,2.2472527E0,0E0,0E0,0E0,1.7392571E0,3.3819215E0,0E0,0E0,0E0,1.8799477E0,1.2841997E0,3.1035268E0,0E0,0E0,0E0,0E0,0E0,0E0,0E0,0E0,0E0,0E0,0E0,0E0,0E0,0E0,0E0,0E0,0E0,0E0,0E0,0E0],"parents":[2147483647,0,0,1,1,3,3,4,4,5,5,6,6,7,7,8,8,9,9,10,10,11,11,12,12,13,13,14,14,15,15,16,16,17,17,18,18,19,19,20,20,21,21,25,25,26,26,30,30,31,31,32,32],"right_children":[2,4,-1,6,8,10,12,14,16,18,20,22,24,26,28,30,32,34,36,38,40,42,-1,-1,-1,44,46,-1,-1,-1,48,50,52,-1,-1,-1,-1,-1,-1,-1,-1,-1,-1,-1,-1,-1,-1,-1,-1,-1,-1,-1,-1],"split_conditions":[-1.5335909E0,1.1557447E0,-2.5829178E-1,-9.1598475E-1,4.0442532E-1,1.5158905E0,5.5927306E-1,1.0293278E0,-5.6460325E-2,8.915844E-1,9.613945E-2,-3.257992E-3,5.096086E-1,-1.566283E0,5.978203E-1,1.3267821E0,6.9718176E-1,-6.2805E-1,-6.7342967E-1,-4.1091785E-1,-5.1019263E-1,1.4154851E0,2.6409325E-1,-3.319737E-1,-2.0930137E-2,-3.3922973E-1,-8.951064E-1,3.0351037E-1,-1.9349666E-2,-1.650023E-2,1.5432574E0,-6.741895E-1,-8.712702E-2,-2.3447125E-1,1.4306621E-1,-1.6330065E-2,3.8522568E-1,-3.901424E-1,-2.7045125E-2,2.8370875E-1,-3.349885E-2,-7.4226437E-3,-1.19956456E-1,3.0513412E-1,-6.302528E-2,1.5324889E-1,-1.3681148E-1,4.08093E-1,6.733974E-2,1.0050158E-2,4.0129757E-1,-2.2469775E-1,9.68037E-2],"split_indices":[12,11,0,7,6,1,14,3,2,9,5,14,0,6,2,1,6,8,2,2,2,3,0,0,0,3,9,0,0,0,1,0,3,0,0,0,0,0,0,0,0,0,0,0,0,0,0,0,0,0,0,0,0],"split_type":[0,0,0,0,0,0,0,0,0,0,0,0,0,0,0,0,0,0,0,0,0,0,0,0,0,0,0,0,0,0,0,0,0,0,0,0,0,0,0,0,0,0,0,0,0,0,0,0,0,0,0,0,0],"sum_hessian":[3.0979132E2,3.0359924E2,6.192078E0,2.5012448E2,5.3474773E1,4.328041E1,2.0684407E2,3.290969E1,2.0565079E1,2.0765148E1,2.251526E1,2.0343567E2,3.4084022E0,2.9036566E1,3.8731265E0,8.267566E0,1.2297514E1,1.4587586E1,6.1775627E0,1.0119869E1,1.23953905E1,2.0149126E2,1.9444135E0,2.3483253E0,1.0600771E0,3.0996356E0,2.593693E1,2.4229472E0,1.4501793E0,1.0652585E0,7.2023067E0,3.3275921E0,8.969922E0,3.009697E0,1.1577889E1,1.3385664E0,4.838996E0,3.4096625E0,6.710207E0,3.9909792E0,8.404411E0,1.849924E2,1.649885E1,1.4420615E0,1.6575739E0,3.418409E0,2.251852E1,4.6141143E0,2.5881925E0,1.0491016E0,2.2784905E0,4.3651533E0,4.6047688E0],"tree_param":{"num_deleted":"0","num_feature":"18","num_nodes":"53","size_leaf_vector":"1"}},{"base_weights":[-7.275575E-3,8.435877E-3,-2.4812353E-1,2.9283215E-3,2.0836826E-1,1.852592E-1,-2.4520496E-3,1.7304195E-1,-8.134217E-3,3.29019E-1,-1.8057972E-2,-1.1840834E-1,1.5660039E-1,-4.1018564E-2,3.1806005E-3],"categories":[],"categories_nodes":[],"categories_segments":[],"categories_sizes":[],"default_left":[0,0,0,0,0,0,0,0,0,0,0,0,0,0,0],"id":29,"left_children":[1,3,-1,5,-1,-1,7,-1,9,11,13,-1,-1,-1,-1],"loss_changes":[3.9608996E0,1.1399107E0,0E0,9.961626E-1,0E0,0E0,9.8941135E-1,0E0,1.0005062E0,1.4003341E0,9.867609E-1,0E0,0E0,0E0,0E0],"parents":[2147483647,0,0,1,1,3,3,6,6,8,8,9,9,10,10],"right_children":[2,4,-1,6,-1,-1,8,-1,10,12,14,-1,-1,-1,-1],"split_conditions":[-1.5335909E0,2.6733696E0,-2.4812353E-1,-1.5474296E0,2.0836826E-1,1.852592E-1,-2.267156E0,1.7304195E-1,-5.905927E-1,-1.2566867E0,-5.775755E-1,-1.1840834E-1,1.5660039E-1,-4.1018564E-2,3.1806005E-3],"split_indices":[12,4,0,12,0,0,2,0,16,6,11,0,0,0,0],"split_type":[0,0,0,0,0,0,0,0,0,0,0,0,0,0,0],"sum_hessian":[3.0597458E2,3.01192E2,4.782609E0,2.9978983E2,1.4021584E0,1.6142874E0,2.9817554E2,1.9201245E0,2.962554E2,7.551266E0,2.8870413E2,1.3696457E0,6.18162E0,5.542764E1,2.332765E2],"tree_param":{"num_deleted":"0","num_feature":"18","num_nodes":"15","size_leaf_vector":"1"}},{"base_weights":[-4.3296376E-3,8.002246E-3,-2.3660047E-1,-2.432934E-4,3.835548E-1,-9.268401E-3,3.5479712E-1,-6.965532E-1,3.3240402E-1,1.5895272E-3,-2.995255E-1,-1.859982E-1,6.1944073E-1,-2.7903178E-1,-3.7356954E-2,-1.36485705E-2,4.1147652E-1,2.137795E-1,-6.2920165E-1,3.1447235E-1,-1.6773772E-1,2.3351742E-1,-6.120621E-3,-1.6993675E-2,3.148255E-1,-4.0733334E-1,-2.5367534E-3],"categories":[],"categories_nodes":[],"categories_segments":[],"categories_sizes":[],"default_left":[0,0,0,0,0,0,0,0,0,0,0,0,0,0,0,0,0,0,0,0,0,0,0,0,0,0,0],"id":30,"left_children":[1,3,-1,5,7,9,11,13,-1,15,17,-1,19,-1,-1,21,23,-1,25,-1,-1,-1,-1,-1,-1,-1,-1],"loss_changes":[2.9566932E0,9.331096E-1,0E0,9.5119834E-1,5.8374834E0,9.1275895E-1,2.2824497E0,3.1342912E-1,0E0,1.754619E0,3.9329848E0,0E0,3.763802E0,0E0,0E0,1.4652302E0,3.0664682E0,0E0,3.7913148E0,0E0,0E0,0E0,0E0,0E0,0E0,0E0,0E0],"parents":[2147483647,0,0,1,1,3,3,4,4,5,5,6,6,7,7,9,9,10,10,12,12,15,15,16,16,18,18],"right_children":[2,4,-1,6,8,10,12,14,-1,16,18,-1,20,-1,-1,22,24,-1,26,-1,-1,-1,-1,-1,-1,-1,-1],"split_conditions":[-1.5335909E0,1.6934067E0,-2.3660047E-1,1.9887357E0,-4.1190073E-1,1.5975571E0,-1.536921E0,-6.5990645E-1,3.3240402E-1,1.38897E0,-9.375908E-1,-1.859982E-1,8.915844E-1,-2.7903178E-1,-3.7356954E-2,-2.424079E0,3.6239317E-1,2.137795E-1,-3.20557E-1,3.1447235E-1,-1.6773772E-1,2.3351742E-1,-6.120621E-3,-1.6993675E-2,3.148255E-1,-4.0733334E-1,-2.5367534E-3],"split_indices":[12,0,0,7,4,7,6,7,0,7,6,0,9,0,0,3,5,0,6,0,0,0,0,0,0,0,0],"split_type":[0,0,0,0,0,0,0,0,0,0,0,0,0,0,0,0,0,0,0,0,0,0,0,0,0,0,0],"sum_hessian":[3.040319E2,3.0030017E2,3.731718E0,2.948264E2,5.4737835E0,2.8846747E2,6.3589315E0,2.2129607E0,3.2608228E0,2.7902426E2,9.443207E0,1.071053E0,5.2878785E0,1.1268911E0,1.0860695E0,2.6995502E2,9.069238E0,2.0347877E0,7.408419E0,3.958301E0,1.3295774E0,1.316364E0,2.6863864E2,5.7563963E0,3.3128414E0,2.8619657E0,4.546453E0],"tree_param":{"num_deleted":"0","num_feature":"18","num_nodes":"27","size_leaf_vector":"1"}},{"base_weights":[-2.8288118E-3,-6.457115E-1,8.523037E-3,-2.6338208E-1,3.7708417E-2,6.028208E-4,5.0625706E-1,8.948599E-3,-5.0005966E-1,9.548399E-1,-1.5016493E-1,-4.587439E-2,7.6722875E-2,-2.5674817E-1,5.2310254E-2,3.7635186E-1,7.6181084E-2,4.07405E-1,-7.638932E-2,4.760565E-1,1.4219289E-2,1.9655243E-2,2.9010728E-1,-1.0406453E-1,-6.7830035E-3,-4.3441713E-2,2.2503693E-1,7.581571E-2,-4.4301074E-2],"categories":[],"categories_nodes":[],"categories_segments":[],"categories_sizes":[],"default_left":[0,0,0,0,0,0,0,0,0,0,0,0,0,0,0,0,0,0,0,0,0,0,0,0,0,0,0,0,0],"id":31,"left_children":[1,3,5,-1,-1,7,9,11,13,15,-1,17,19,-1,-1,-1,-1,21,23,25,27,-1,-1,-1,-1,-1,-1,-1,-1],"loss_changes":[2.2156038E0,1.0540257E0,1.1767161E0,0E0,0E0,1.2366787E0,2.5895438E0,1.0849209E0,1.3135962E0,4.330089E-1,0E0,2.2652473E0,3.251064E0,0E0,0E0,0E0,0E0,1.9160544E0,2.2058368E0,3.109151E0,4.4346604E0,0E0,0E0,0E0,0E0,0E0,0E0,0E0,0E0],"parents":[2147483647,0,0,1,1,2,2,5,5,6,6,7,7,8,8,9,9,11,11,12,12,17,17,18,18,19,19,20,20],"right_children":[2,4,6,-1,-1,8,10,12,14,16,-1,18,20,-1,-1,-1,-1,22,24,26,28,-1,-1,-1,-1,-1,-1,-1,-1],"split_conditions":[1.0948222E0,9.1717684E-1,2.2578282E0,-2.6338208E-1,3.7708417E-2,2.678275E0,2.1737811E-1,1.7673542E-1,1.5982335E0,-1.0432115E0,-1.5016493E-1,-1.4211427E0,2.959984E-1,-2.5674817E-1,5.2310254E-2,3.7635186E-1,7.6181084E-2,3.303395E-1,-7.480154E-1,-4.484337E-1,-2.443683E-1,1.9655243E-2,2.9010728E-1,-1.0406453E-1,-6.7830035E-3,-4.3441713E-2,2.2503693E-1,7.581571E-2,-4.4301074E-2],"split_indices":[1,5,3,0,0,9,2,2,1,2,0,7,2,0,0,0,0,17,7,9,5,0,0,0,0,0,0,0,0],"split_type":[0,0,0,0,0,0,0,0,0,0,0,0,0,0,0,0,0,0,0,0,0,0,0,0,0,0,0,0,0],"sum_hessian":[3.0184033E2,4.2677145E0,2.975726E2,3.1740696E0,1.0936449E0,2.938972E2,3.6754413E0,2.900444E2,3.85276E0,2.5782967E0,1.0971446E0,1.6052112E2,1.295233E2,2.3461642E0,1.5065957E0,1.2528194E0,1.3254771E0,9.345708E0,1.5117542E2,1.6633821E1,1.1288947E2,6.494876E0,2.850832E0,2.4168024E1,1.27007385E2,5.2384458E0,1.1395376E1,4.541779E1,6.747169E1],"tree_param":{"num_deleted":"0","num_feature":"18","num_nodes":"29","size_leaf_vector":"1"}},{"base_weights":[-1.3556164E-3,7.1026245E-3,-2.1513419E-1,8.6609475E-2,-3.0895786E-2,4.11847E-1,-8.111469E-2,1.0829401E-2,-3.165429E-1,4.8679262E-1,-2.6547635E-1,-4.8755756E-1,5.075874E-2,-1.2499513E-2,3.1102198E-1,-7.14945E-1,1.5228142E-1,3.1568274E-1,1.193037E0,-6.8675923E-1,5.6534976E-1,-5.665412E-1,2.1576579E-1,1.0618566E-1,-1.4578587E-1,3.388908E-2,-9.396179E-1,5.487352E-1,-5.406553E-1,1.9046862E-1,2.3896259E-3,3.927429E-1,1.0225293E-1,2.550896E-2,-2.8906202E-1,8.990818E-3,2.4672437E-1,-2.2028747E-1,1.09195426E-1,8.880223E-2,-2.8363913E-1,-1.25122955E-2,1.3652201E-1,4.4318116E-3,-1.2041184E-1,-1.262925E-1,2.1852289E-1,-3.4384122E-1,-1.7597832E-2,-7.1731344E-2,2.4508092E-1,-6.045387E-3,-2.5850537E-1],"categories":[],"categories_nodes":[],"categories_segments":[],"categories_sizes":[],"default_left":[0,0,0,0,0,0,0,0,0,0,0,0,0,0,0,0,0,0,0,0,0,0,1,0,0,0,0,0,0,0,0,0,0,0,0,0,0,0,0,0,0,0,0,0,0,0,0,0,0,0,0,0,0],"id":32,"left_children":[1,3,-1,5,7,9,11,13,15,17,-1,19,21,23,-1,25,27,29,31,33,35,37,39,41,43,45,47,49,51,-1,-1,-1,-1,-1,-1,-1,-1,-1,-1,-1,-1,-1,-1,-1,-1,-1,-1,-1,-1,-1,-1,-1,-1],"loss_changes":[1.8323883E0,9.068859E-1,0E0,5.327383E0,2.4258652E0,3.6558175E0,3.5013902E0,4.2805014E0,4.953572E0,3.4923582E0,0E0,3.740812E0,5.2029257E0,2.789089E0,0E0,2.4204984E0,3.79664E0,2.6600153E0,1.3600254E-1,3.0496583E0,4.00823E-1,1.9525797E0,4.0147624E0,4.834379E0,3.4122899E0,1.6466889E0,1.9260225E0,2.0125217E0,8.4154224E-1,0E0,0E0,0E0,0E0,0E0,0E0,0E0,0E0,0E0,0E0,0E0,0E0,0E0,0E0,0E0,0E0,0E0,0E0,0E0,0E0,0E0,0E0,0E0,0E0],"parents":[2147483647,0,0,1,1,3,3,4,4,5,5,6,6,7,7,8,8,9,9,11,11,12,12,13,13,15,15,16,16,17,17,18,18,19,19,20,20,21,21,22,22,23,23,24,24,25,25,26,26,27,27,28,28],"right_children":[2,4,-1,6,8,10,12,14,16,18,-1,20,22,24,-1,26,28,30,32,34,36,38,40,42,44,46,48,50,52,-1,-1,-1,-1,-1,-1,-1,-1,-1,-1,-1,-1,-1,-1,-1,-1,-1,-1,-1,-1,-1,-1,-1,-1],"split_conditions":[-1.5335909E0,-5.050755E-1,-2.1513419E-1,1.4483048E0,1.2507895E0,2.3112915E0,-8.650035E-1,1.1595632E0,1.5023803E0,1.0481821E0,-2.6547635E-1,1.2698668E0,-7.418703E-1,2.0899361E-1,3.1102198E-1,-5.775755E-1,7.073798E-1,-2.443683E-1,1.0775268E0,-4.7656485E-1,7.073798E-1,1.2107092E0,7.2883916E-1,-2.2518326E-1,3.9406225E-1,9.4494885E-1,2.2777733E-1,1.3918722E0,-9.7567536E-2,1.9046862E-1,2.3896259E-3,3.927429E-1,1.0225293E-1,2.550896E-2,-2.8906202E-1,8.990818E-3,2.4672437E-1,-2.2028747E-1,1.09195426E-1,8.880223E-2,-2.8363913E-1,-1.25122955E-2,1.3652201E-1,4.4318116E-3,-1.2041184E-1,-1.262925E-1,2.1852289E-1,-3.4384122E-1,-1.7597832E-2,-7.1731344E-2,2.4508092E-1,-6.045387E-3,-2.5850537E-1],"split_indices":[12,0,0,1,5,11,8,5,1,5,0,7,5,3,0,11,10,5,7,7,10,8,16,3,6,2,4,5,4,0,0,0,0,0,0,0,0,0,0,0,0,0,0,0,0,0,0,0,0,0,0,0,0],"split_type":[0,0,0,0,0,0,0,0,0,0,0,0,0,0,0,0,0,0,0,0,0,0,0,0,0,0,0,0,0,0,0,0,0,0,0,0,0,0,0,0,0,0,0,0,0,0,0,0,0,0,0,0,0],"sum_hessian":[3.0082983E2,2.9829492E2,2.5349264E0,9.60478E1,2.0224712E2,3.218387E1,6.3863934E1,1.773092E2,2.4937912E1,3.101594E1,1.1679292E0,1.4984261E1,4.8879673E1,1.7433275E2,2.976461E0,1.3197681E1,1.1740231E1,2.61317E1,4.884238E0,1.2892796E1,2.0914645E0,9.79661E0,3.908306E1,9.232502E1,8.200772E1,3.2418303E0,9.955852E0,7.6000643E0,4.140166E0,1.2304402E1,1.3827299E1,3.8266747E0,1.0575631E0,3.586055E0,9.306741E0,1.0406727E0,1.0507919E0,8.478953E0,1.3176563E0,3.7253887E1,1.8291743E0,6.545791E1,2.6867115E1,5.0945923E1,3.10618E1,2.1968827E0,1.0449475E0,7.8213196E0,2.134532E0,1.9577297E0,5.642335E0,1.984823E0,2.1553426E0],"tree_param":{"num_deleted":"0","num_feature":"18","num_nodes":"53","size_leaf_vector":"1"}},{"base_weights":[-2.0882972E-3,4.81159E-3,-2.0145488E-1,1.0160188E-1,-2.8321562E-2,-2.7007464E-1,2.0973067E-1,3.7215543E-1,-5.4560825E-2,-4.3810552E-1,2.0179097E-1,-5.7428014E-1,2.8022632E-1,1.0842234E0,-1.2069723E-2,-3.2303262E-1,-7.581195E-3,-1.1153583E-1,-8.6487156E-1,3.5461783E-2,-2.9592642E-1,8.8531023E-1,1.4580156E-1,4.2726192E-1,-2.5806565E-2,5.4073924E-1,-5.503669E-1,2.6086012E-1,-5.082818E-1,-6.560427E-1,1.3238199E-2,1.3128005E-1,-1.5245806E-1,-3.246048E-1,5.3561856E-3,-9.122554E-2,3.7056607E-1,-1.6661137E-1,8.1182934E-2,-6.659725E-3,3.2142514E-1,-2.4656002E-1,7.47135E-2,3.057919E-1,-3.4314483E-2,-3.139049E-1,-4.547054E-2,-2.8280023E-1,7.0747726E-2,-1.07383765E-2,9.569066E-2],"categories":[],"categories_nodes":[],"categories_segments":[],"categories_sizes":[],"default_left":[0,0,0,0,0,0,0,0,0,0,0,0,0,0,0,0,0,0,0,0,0,0,0,0,0,0,0,0,0,0,0,0,0,0,0,0,0,0,0,0,0,0,0,0,0,0,0,0,0,0,0],"id":33,"left_children":[1,3,-1,5,7,9,11,13,15,17,-1,19,21,23,25,27,29,31,33,-1,-1,35,37,-1,-1,39,41,43,45,47,49,-1,-1,-1,-1,-1,-1,-1,-1,-1,-1,-1,-1,-1,-1,-1,-1,-1,-1,-1,-1],"loss_changes":[1.3783042E0,9.5103836E-1,0E0,3.095589E0,2.3430426E0,3.0632854E0,3.429473E0,3.7667644E0,2.6250322E0,2.0553293E0,0E0,1.6026276E0,4.3389673E0,2.0400162E0,3.2437098E0,3.485805E0,2.4161E0,2.3776157E0,1.2738504E0,0E0,0E0,4.4492307E0,4.1884127E0,0E0,0E0,1.6336151E0,1.4009221E0,2.4296596E0,4.423552E0,1.6453505E0,2.6161134E0,0E0,0E0,0E0,0E0,0E0,0E0,0E0,0E0,0E0,0E0,0E0,0E0,0E0,0E0,0E0,0E0,0E0,0E0,0E0,0E0],"parents":[2147483647,0,0,1,1,3,3,4,4,5,5,6,6,7,7,8,8,9,9,11,11,12,12,13,13,14,14,15,15,16,16,17,17,18,18,21,21,22,22,25,25,26,26,27,27,28,28,29,29,30,30],"right_children":[2,4,-1,6,8,10,12,14,16,18,-1,20,22,24,26,28,30,32,34,-1,-1,36,38,-1,-1,40,42,44,46,48,50,-1,-1,-1,-1,-1,-1,-1,-1,-1,-1,-1,-1,-1,-1,-1,-1,-1,-1,-1,-1],"split_conditions":[-1.5335909E0,-8.081347E-1,-2.0145488E-1,-8.4330356E-1,-1.5057049E0,1.3382293E0,-1.3916584E0,-2.863247E-1,-8.054196E-1,2.2705688E-1,2.0179097E-1,1.7557444E-1,-6.3735116E-1,-2.514045E-1,-6.623027E-2,-6.6253793E-1,-7.228314E-1,-2.1436717E-1,1.0595479E0,3.5461783E-2,-2.9592642E-1,-1.5095171E0,-3.2922566E-1,4.2726192E-1,-2.5806565E-2,5.779713E-1,1.6254271E0,-1.8438485E-1,-2.3502164E-1,8.0599385E-1,1.1425909E0,1.3128005E-1,-1.5245806E-1,-3.246048E-1,5.3561856E-3,-9.122554E-2,3.7056607E-1,-1.6661137E-1,8.1182934E-2,-6.659725E-3,3.2142514E-1,-2.4656002E-1,7.47135E-2,3.057919E-1,-3.4314483E-2,-3.139049E-1,-4.547054E-2,-2.8280023E-1,7.0747726E-2,-1.07383765E-2,9.569066E-2],"split_indices":[12,8,0,0,3,7,3,2,3,7,0,6,3,0,6,6,8,2,2,0,0,8,3,0,0,11,1,2,2,6,5,0,0,0,0,0,0,0,0,0,0,0,0,0,0,0,0,0,0,0,0],"split_type":[0,0,0,0,0,0,0,0,0,0,0,0,0,0,0,0,0,0,0,0,0,0,0,0,0,0,0,0,0,0,0,0,0,0,0,0,0,0,0,0,0,0,0,0,0,0,0,0,0,0,0],"sum_hessian":[2.9670078E2,2.9465652E2,2.0442536E0,7.461649E1,2.2004004E2,1.6478025E1,5.8138462E1,1.2719863E1,2.0732019E2,1.4439559E1,2.0384674E0,4.2067842E0,5.393168E1,3.8195012E0,8.900361E0,3.0000729E1,1.7731946E2,8.894593E0,5.5449653E0,1.8356638E0,2.3711207E0,8.788088E0,4.5143593E1,2.7914934E0,1.0280076E0,4.388755E0,4.5116067E0,7.1274233E0,2.2873304E1,4.5667825E0,1.7275267E2,3.6870265E0,5.207567E0,4.2690425E0,1.2759228E0,2.0274496E0,6.760638E0,6.3000574E0,3.8843533E1,2.5945973E0,1.7941574E0,3.3468463E0,1.1647604E0,1.7910062E0,5.336417E0,8.347938E0,1.4525368E1,3.412977E0,1.1538055E0,1.4963696E2,2.3115707E1],"tree_param":{"num_deleted":"0","num_feature":"18","num_nodes":"51","size_leaf_vector":"1"}},{"base_weights":[-2.4926728E-3,3.2116089E-3,-1.876945E-1,4.5817518E-1,-3.360264E-3,5.5631053E-1,2.303277E-2,-3.9347085E-1,4.0883706E-3,1.996662E-1,4.9526874E-2,-2.7033573E-1,1.0766288E-1,4.8138314E-1,-4.4170795E-3,2.6683402E-1,-1.9482796E-1,2.5041014E-1,-3.4200877E-2,8.059186E-2,-4.45559E-2,4.3225743E-2,-1.2229578E-1,-2.4625864E-3,-8.8231325E-2],"categories":[],"categories_nodes":[],"categories_segments":[],"categories_sizes":[],"default_left":[0,0,0,0,0,0,0,0,0,0,0,0,0,0,0,0,0,0,0,0,0,0,0,0,0],"id":34,"left_children":[1,3,-1,5,7,9,-1,11,13,-1,-1,-1,15,17,19,-1,-1,-1,-1,21,23,-1,-1,-1,-1],"loss_changes":[1.0468162E0,8.7537146E-1,0E0,1.13319695E-1,8.4163326E-1,2.4985492E-2,0E0,1.4775374E0,1.1577332E0,0E0,0E0,0E0,2.7226553E0,1.1454762E0,9.612706E-1,0E0,0E0,0E0,0E0,2.860404E0,1.7326837E0,0E0,0E0,0E0,0E0],"parents":[2147483647,0,0,1,1,3,3,4,4,5,5,7,7,8,8,12,12,13,13,14,14,19,19,20,20],"right_children":[2,4,-1,6,8,10,-1,12,14,-1,-1,-1,16,18,20,-1,-1,-1,-1,22,24,-1,-1,-1,-1],"split_conditions":[-1.5335909E0,-2.100719E0,-1.876945E-1,1.5706588E0,-1.8715923E0,2.760102E-1,2.303277E-2,-2.514045E-1,-1.7023991E0,1.996662E-1,4.9526874E-2,-2.7033573E-1,6.787226E-1,1.8768905E-1,-5.050755E-1,2.6683402E-1,-1.9482796E-1,2.5041014E-1,-3.4200877E-2,1.2478586E0,1.2507895E0,4.3225743E-2,-1.2229578E-1,-2.4625864E-3,-8.8231325E-2],"split_indices":[12,5,0,1,5,2,0,0,5,0,0,0,0,7,0,0,0,0,0,4,5,0,0,0,0],"split_type":[0,0,0,0,0,0,0,0,0,0,0,0,0,0,0,0,0,0,0,0,0,0,0,0,0],"sum_hessian":[2.929264E2,2.9125513E2,1.6712633E0,3.1687453E0,2.8808636E2,2.155519E0,1.0132264E0,4.4265804E0,2.836598E2,1.1368462E0,1.0186727E0,1.8024939E0,2.6240864E0,3.992951E0,2.7966684E2,1.2049795E0,1.4191068E0,2.253637E0,1.7393138E0,8.93747E1,1.9029213E2,7.971326E1,9.661452E0,1.6700098E2,2.3291159E1],"tree_param":{"num_deleted":"0","num_feature":"18","num_nodes":"25","size_leaf_vector":"1"}},{"base_weights":[-2.0043573E-3,-9.61977E-3,4.2723593E-1,-3.2559868E-3,-4.958765E-1,2.3537911E-1,-1.1434505E-1,-4.283738E-1,5.2222568E-3,2.8505443E-2,-2.302314E-1,5.5913433E-2,-2.3864916E-1,-2.0347796E-3,4.5550057E-1,5.4177064E-3,-4.7332978E-1,8.1141835E-1,-1.13563575E-1,-1.0354125E-2,2.6888048E-2,-2.475259E-1,8.292235E-2,3.214992E-1,5.9668764E-2],"categories":[],"categories_nodes":[],"categories_segments":[],"categories_sizes":[],"default_left":[0,0,0,0,0,0,0,0,0,0,0,0,0,0,0,0,0,0,0,0,0,0,0,0,0],"id":35,"left_children":[1,3,5,7,9,-1,-1,11,13,-1,-1,-1,-1,15,17,19,21,23,-1,-1,-1,-1,-1,-1,-1],"loss_changes":[9.617062E-1,8.9211285E-1,1.7806758E0,1.0333903E0,6.7055446E-1,0E0,0E0,1.4135077E0,9.207393E-1,0E0,0E0,0E0,0E0,9.790531E-1,1.6338365E0,9.2672735E-1,1.372396E0,3.3688998E-1,0E0,0E0,0E0,0E0,0E0,0E0,0E0],"parents":[2147483647,0,0,1,1,2,2,3,3,4,4,7,7,8,8,13,13,14,14,15,15,16,16,17,17],"right_children":[2,4,6,8,10,-1,-1,12,14,-1,-1,-1,-1,16,18,20,22,24,-1,-1,-1,-1,-1,-1,-1],"split_conditions":[2.1578233E0,1.7035726E0,5.962934E-1,1.1499369E0,-9.472868E-2,2.3537911E-1,-1.1434505E-1,-4.6693522E-1,2.2578282E0,2.8505443E-2,-2.302314E-1,5.5913433E-2,-2.3864916E-1,2.678275E0,2.1737811E-1,5.512353E-1,8.1109965E-1,-9.159532E-1,-1.13563575E-1,-1.0354125E-2,2.6888048E-2,-2.475259E-1,8.292235E-2,3.214992E-1,5.9668764E-2],"split_indices":[4,8,5,1,6,0,0,6,3,0,0,0,0,9,2,6,5,2,0,0,0,0,0,0,0],"split_type":[0,0,0,0,0,0,0,0,0,0,0,0,0,0,0,0,0,0,0,0,0,0,0,0,0],"sum_hessian":[2.9194666E2,2.878179E2,4.128763E0,2.850935E2,2.7244055E0,2.883493E0,1.2452703E0,4.6061225E0,2.8048737E2,1.0625317E0,1.6618738E0,1.9063118E0,2.6998107E0,2.7701822E2,3.4691603E0,2.7367908E2,3.3391235E0,2.4505506E0,1.0186096E0,1.860469E2,8.763218E1,2.2043855E0,1.134738E0,1.1937602E0,1.2567905E0],"tree_param":{"num_deleted":"0","num_feature":"18","num_nodes":"25","size_leaf_vector":"1"}},{"base_weights":[-1.9679072E-3,1.6040495E-1,-7.1823555E-3,1.7246966E-1,-1.1897892E-2,1.4883006E-1,-1.7070554E-2,-2.1491302E-2,1.7243417E-1,-1.693438E-2,-1.7329425E-1,-7.3392983E-3,1.0064042E-1],"categories":[],"categories_nodes":[],"categories_segments":[],"categories_sizes":[],"default_left":[0,0,0,0,0,0,0,0,0,0,0,0,0],"id":36,"left_children":[1,-1,3,-1,5,-1,7,9,-1,11,-1,-1,-1],"loss_changes":[8.209637E-1,0E0,8.0333257E-1,0E0,7.674215E-1,0E0,7.629604E-1,7.1433544E-1,0E0,7.6295733E-1,0E0,0E0,0E0],"parents":[2147483647,0,0,2,2,4,4,6,6,7,7,9,9],"right_children":[2,-1,4,-1,6,-1,8,10,-1,12,-1,-1,-1],"split_conditions":[-2.267156E0,1.6040495E-1,-1.5474296E0,1.7246966E-1,-1.7257895E0,1.4883006E-1,2.6733696E0,2.6546068E0,1.7243417E-1,2.0649548E0,-1.7329425E-1,-7.3392983E-3,1.0064042E-1],"split_indices":[2,0,12,0,15,0,4,2,0,2,0,0,0],"split_type":[0,0,0,0,0,0,0,0,0,0,0,0,0],"sum_hessian":[2.9100293E2,1.8232403E0,2.891797E2,1.3521787E0,2.878275E2,1.944591E0,2.8588293E2,2.8471994E2,1.1629877E0,2.834281E2,1.2918487E0,2.7840976E2,5.0183334E0],"tree_param":{"num_deleted":"0","num_feature":"18","num_nodes":"13","size_leaf_vector":"1"}},{"base_weights":[7.2079647E-4,1.3189069E-2,-2.1411803E-1,-4.3932972E-3,5.007526E-1,6.687117E-1,-4.9721983E-1,6.831071E-3,-8.6839366E-1,-1.400686E-1,7.662386E-1,2.7103776E-2,2.9020363E-1,1.6715065E-1,-6.3946456E-1,1.5756814E-2,-4.478025E-1,-8.838544E-2,-3.161652E-1,9.618054E-2,1.1643354E0,1.0644628E-1,-8.863246E-1,6.7473007E-3,2.3215817E-1,-5.8258367E-1,1.3706057E-2,-1.4765507E-1,2.0823817E-1,3.9848956E-1,9.476203E-2,-9.799905E-2,1.8734044E-1,-6.137811E-2,-3.5838604E-1,-1.9731699E-3,1.1666714E-1,-2.2235686E-2,-2.6685798E-1,1.4354557E-1,-1.5551502E-1],"categories":[],"categories_nodes":[],"categories_segments":[],"categories_sizes":[],"default_left":[0,0,0,0,0,0,0,1,0,0,0,0,0,0,0,1,0,0,0,0,0,0,0,0,0,0,0,0,0,0,0,0,0,0,0,0,0,0,0,0,0],"id":37,"left_children":[1,3,5,7,9,11,13,15,17,-1,19,-1,-1,-1,21,23,25,-1,-1,27,29,31,33,35,-1,37,-1,-1,-1,-1,-1,-1,-1,39,-1,-1,-1,-1,-1,-1,-1],"loss_changes":[7.8318787E-1,2.3706794E0,4.340841E0,2.6016808E0,2.8304617E0,6.588608E-1,2.2636304E0,1.0833102E0,5.567336E-2,0E0,2.0037665E0,0E0,0E0,0E0,2.243412E0,1.7779988E0,3.685454E-1,0E0,0E0,1.7651114E0,2.6008177E-1,1.0554131E0,2.1841402E0,1.3214734E0,0E0,5.756186E-1,0E0,0E0,0E0,0E0,0E0,0E0,0E0,1.1038905E0,0E0,0E0,0E0,0E0,0E0,0E0,0E0],"parents":[2147483647,0,0,1,1,2,2,3,3,4,4,5,5,6,6,7,7,8,8,10,10,14,14,15,15,16,16,19,19,20,20,21,21,22,22,23,23,25,25,33,33],"right_children":[2,4,6,8,10,12,14,16,18,-1,20,-1,-1,-1,22,24,26,-1,-1,28,30,32,34,36,-1,38,-1,-1,-1,-1,-1,-1,-1,40,-1,-1,-1,-1,-1,-1,-1],"split_conditions":[1.6791823E0,1.4733038E0,1.3267821E0,1.4193356E0,1.3001773E0,3.3816162E-1,1.4635783E0,4.788165E-1,-4.205185E-1,-1.400686E-1,-6.253463E-1,2.7103776E-2,2.9020363E-1,1.6715065E-1,-4.484337E-1,4.6611782E-2,6.787226E-1,-8.838544E-2,-3.161652E-1,5.305255E-1,6.4018494E-1,1.7672321E-1,-4.6528107E-1,1.2501022E0,2.3215817E-1,2.8395477E-1,1.3706057E-2,-1.4765507E-1,2.0823817E-1,3.9848956E-1,9.476203E-2,-9.799905E-2,1.8734044E-1,3.5090786E-1,-3.5838604E-1,-1.9731699E-3,1.1666714E-1,-2.2235686E-2,-2.6685798E-1,1.4354557E-1,-1.5551502E-1],"split_indices":[2,2,1,2,1,7,14,14,0,0,3,0,0,0,9,14,0,0,0,5,6,4,3,2,0,6,0,0,0,0,0,0,0,4,0,0,0,0,0,0,0],"split_type":[0,0,0,0,0,0,0,0,0,0,0,0,0,0,0,0,0,0,0,0,0,0,0,0,0,0,0,0,0,0,0,0,0,0,0,0,0,0,0,0,0],"sum_hessian":[2.903252E2,2.7528738E2,1.5037823E1,2.6666208E2,8.625296E0,3.3206277E0,1.1717195E1,2.6422162E2,2.4404523E0,1.6936404E0,6.931656E0,1.5742664E0,1.7463613E0,1.0460895E0,1.0671105E1,2.6008084E2,4.140781E0,1.2285404E0,1.2119118E0,3.0461383E0,3.8855174E0,2.7948875E0,7.8762183E0,2.5802335E2,2.0575202E0,3.1106622E0,1.030119E0,1.6245248E0,1.4216136E0,2.7823067E0,1.1032107E0,1.7233903E0,1.0714971E0,2.4689133E0,5.407305E0,2.502794E2,7.743932E0,1.6382697E0,1.4723924E0,1.1103033E0,1.3586102E0],"tree_param":{"num_deleted":"0","num_feature":"18","num_nodes":"41","size_leaf_vector":"1"}},{"base_weights":[1.4247939E-3,-1.8458255E-1,1.4505937E-2,4.1800555E-2,-8.095956E-1,-1.4625505E-1,3.841043E-2,-3.152837E-1,5.280627E-1,-2.9606164E-2,-3.4532294E-1,-3.2885468E-1,2.0831029E-1,2.577127E-1,6.84132E-3,-6.2740403E-1,1.7456281E-1,8.832268E-1,-9.137274E-2,-5.401409E-1,3.3529684E-1,-2.1502495E-1,3.623406E-1,3.3935025E-1,-2.2539303E-1,-1.9662958E-1,5.0302997E-2,2.5832353E-2,-8.959511E-1,3.1554177E-1,3.2248545E-2,2.2347282E-1,-7.4263453E-1,8.1760085E-1,-1.7965542E-1,5.487383E-1,-1.2395636E-1,2.095717E-1,1.0089426E0,2.4865665E-1,-2.7266666E-1,3.4501925E-1,-1.06101995E-2,-1.24877475E-1,1.4122304E-1,-3.070878E-1,-5.9768297E-2,2.2072004E-1,-1.9921489E-1,-2.8263187E-1,6.1947636E-2,6.455988E-2,2.9841888E-1,6.978158E-2,-1.8529128E-1,-1.1708415E-1,2.422641E-1,1.3533135E-1,-6.32996E-2,3.5678965E-1,8.581003E-2,1.9900075E-1,-1.027442E-1,-6.718247E-2,1.4705308E-1,-1.9903049E-1,7.793493E-3],"categories":[],"categories_nodes":[],"categories_segments":[],"categories_sizes":[],"default_left":[0,0,0,0,0,0,0,0,0,0,0,0,0,0,0,0,0,0,0,0,0,0,0,0,0,0,0,0,0,0,0,0,0,0,0,0,0,0,0,0,0,0,0,0,0,0,0,0,0,0,0,0,0,0,0,0,0,0,0,0,0,0,0,0,0,0,0],"id":38,"left_children":[1,3,5,7,9,11,13,15,17,-1,-1,19,21,23,25,27,-1,29,-1,31,33,-1,35,37,-1,39,41,43,45,-1,-1,47,49,51,53,55,-1,57,59,-1,61,63,65,-1,-1,-1,-1,-1,-1,-1,-1,-1,-1,-1,-1,-1,-1,-1,-1,-1,-1,-1,-1,-1,-1,-1,-1],"loss_changes":[7.07576E-1,2.7374427E0,1.049328E0,2.7672133E0,1.1317165E0,2.3581674E0,1.6406126E0,2.958703E0,2.2550051E0,0E0,0E0,3.5112126E0,2.0598855E0,2.711772E0,1.8528426E0,1.3130071E0,0E0,5.360999E-1,0E0,3.009036E0,1.7226291E0,0E0,1.8883811E0,2.2461782E0,0E0,3.10203E0,3.1007504E0,8.0846596E-1,2.6206875E-1,0E0,0E0,2.5901456E0,2.9897518E0,1.5472555E-1,8.4573865E-1,2.6717763E0,0E0,2.629857E0,2.2428656E-1,0E0,2.5202029E0,2.552709E0,3.4553707E0,0E0,0E0,0E0,0E0,0E0,0E0,0E0,0E0,0E0,0E0,0E0,0E0,0E0,0E0,0E0,0E0,0E0,0E0,0E0,0E0,0E0,0E0,0E0,0E0],"parents":[2147483647,0,0,1,1,2,2,3,3,4,4,5,5,6,6,7,7,8,8,11,11,12,12,13,13,14,14,15,15,17,17,19,19,20,20,22,22,23,23,25,25,26,26,27,27,28,28,31,31,32,32,33,33,34,34,35,35,37,37,38,38,40,40,41,41,42,42],"right_children":[2,4,6,8,10,12,14,16,18,-1,-1,20,22,24,26,28,-1,30,-1,32,34,-1,36,38,-1,40,42,44,46,-1,-1,48,50,52,54,56,-1,58,60,-1,62,64,66,-1,-1,-1,-1,-1,-1,-1,-1,-1,-1,-1,-1,-1,-1,-1,-1,-1,-1,-1,-1,-1,-1,-1,-1],"split_conditions":[1.2582958E0,9.453213E-1,-1.1608284E0,2.568081E-1,-1.7610071E-3,8.600181E-1,-7.476014E-1,1.0169507E0,9.004904E-1,-2.9606164E-2,-3.4532294E-1,7.87042E-1,-1.0975386E0,1.537198E0,-3.5164618E-1,-7.872582E-1,1.7456281E-1,6.859551E-1,-9.137274E-2,-1.0778577E0,-1.6428003E-1,-2.1502495E-1,1.7183574E0,1.1015077E0,-2.2539303E-1,-1.1553489E0,-6.623027E-2,-1.1524416E0,4.8089245E-1,3.1554177E-1,3.2248545E-2,6.787226E-1,1.0169507E0,-1.2351291E0,-1.3184332E0,-1.446998E0,-1.2395636E-1,3.0766717E-1,1.8606324E-1,2.4865665E-1,-1.4905608E0,-5.775755E-1,-1.830112E-2,-1.24877475E-1,1.4122304E-1,-3.070878E-1,-5.9768297E-2,2.2072004E-1,-1.9921489E-1,-2.8263187E-1,6.1947636E-2,6.455988E-2,2.9841888E-1,6.978158E-2,-1.8529128E-1,-1.1708415E-1,2.422641E-1,1.3533135E-1,-6.32996E-2,3.5678965E-1,8.581003E-2,1.9900075E-1,-1.027442E-1,-6.718247E-2,1.4705308E-1,-1.9903049E-1,7.793493E-3],"split_indices":[1,8,6,4,9,8,6,0,4,0,0,2,3,5,6,7,0,6,0,2,5,0,4,0,0,11,6,7,8,0,0,0,0,5,6,4,0,7,2,0,8,11,6,0,0,0,0,0,0,0,0,0,0,0,0,0,0,0,0,0,0,0,0,0,0,0,0],"split_type":[0,0,0,0,0,0,0,0,0,0,0,0,0,0,0,0,0,0,0,0,0,0,0,0,0,0,0,0,0,0,0,0,0,0,0,0,0,0,0,0,0,0,0,0,0,0,0,0,0,0,0,0,0,0,0,0,0,0,0,0,0,0,0,0,0,0,0],"sum_hessian":[2.8870154E2,1.810775E1,2.7059378E2,1.3977974E1,4.129777E0,3.4365147E1,2.3622864E2,8.262249E0,5.7157245E0,1.7582922E0,2.3714848E0,2.2731192E1,1.1633954E1,2.8825064E1,2.0740356E2,6.352799E0,1.9094503E0,3.9640796E0,1.7516448E0,1.7386692E1,5.3445005E0,1.139165E0,1.0494789E1,2.7281471E1,1.5435929E0,3.5884045E1,1.7151953E2,2.1140978E0,4.2387013E0,2.9640536E0,1.000026E0,3.6224906E0,1.37642E1,2.4562533E0,2.8882473E0,8.696923E0,1.7978662E0,2.395212E1,3.3293505E0,1.7936082E0,3.4090435E1,2.8579456E1,1.4294006E2,1.0927132E0,1.0213846E0,3.1857173E0,1.0529838E0,2.4052517E0,1.2172388E0,1.137995E1,2.3842509E0,1.0614104E0,1.3948429E0,1.7293621E0,1.1588852E0,1.7693425E0,6.9275804E0,1.5168358E1,8.783762E0,2.1482375E0,1.181113E0,1.7761377E0,3.2314297E1,5.6989746E0,2.2880482E1,6.6768622E0,1.3626321E2],"tree_param":{"num_deleted":"0","num_feature":"18","num_nodes":"67","size_leaf_vector":"1"}},{"base_weights":[1.1684436E-3,-3.173503E-1,8.520176E-3,-2.2388844E-1,-5.0845608E-2,1.7574003E-1,2.980954E-3,-3.6784035E-1,1.08603604E-1,-2.1573499E-2,1.24496594E-1,4.610966E-2,-1.9602059E-1,5.033622E-3,-6.18446E-1,7.022741E-1,2.1508327E-2,-5.685832E-3,4.7203803E-1,-1.082492E0,3.0550948E-1,-2.9935416E-2,1.0157623E0,4.5119312E-1,-1.1328436E-1,-1.3730499E-2,3.152574E-2,2.7364013E-1,-4.2598344E-2,-3.812627E-1,-5.911529E-2,-1.03952885E-1,2.4286823E-1,-1.29833E-1,1.1629895E-1,2.4329385E-2,4.086583E-1,2.592628E-1,-1.433034E-1,-8.518814E-2,6.7858696E-2],"categories":[],"categories_nodes":[],"categories_segments":[],"categories_sizes":[],"default_left":[0,0,0,0,0,0,0,0,0,0,0,0,0,0,0,0,0,0,0,0,0,0,0,0,0,0,0,0,0,0,0,0,0,0,0,0,0,0,0,0,0],"id":39,"left_children":[1,3,5,-1,7,-1,9,11,-1,13,15,-1,-1,17,19,21,23,25,27,29,31,33,35,37,39,-1,-1,-1,-1,-1,-1,-1,-1,-1,-1,-1,-1,-1,-1,-1,-1],"loss_changes":[6.7299044E-1,7.0326406E-1,8.960339E-1,0E0,7.969922E-1,0E0,8.3543986E-1,6.016213E-1,0E0,3.7039158E0,2.7854023E0,0E0,0E0,1.1244342E0,4.5980453E0,1.6574671E0,2.424351E0,9.817871E-1,1.4914756E0,8.914051E-1,1.6304133E0,6.8866426E-1,1.5059242E0,4.2435703E0,1.9177811E0,0E0,0E0,0E0,0E0,0E0,0E0,0E0,0E0,0E0,0E0,0E0,0E0,0E0,0E0,0E0,0E0],"parents":[2147483647,0,0,1,1,2,2,4,4,6,6,7,7,9,9,10,10,13,13,14,14,15,15,16,16,17,17,18,18,19,19,20,20,21,21,22,22,23,23,24,24],"right_children":[2,4,6,-1,8,-1,10,12,-1,14,16,-1,-1,18,20,22,24,26,28,30,32,34,36,38,40,-1,-1,-1,-1,-1,-1,-1,-1,-1,-1,-1,-1,-1,-1,-1,-1],"split_conditions":[1.1769572E0,-3.6985618E-1,-1.6389371E0,-2.2388844E-1,2.2665507E-3,1.7574003E-1,9.6217287E-1,6.860861E-2,1.08603604E-1,8.435695E-1,-1.0969746E0,4.610966E-2,-1.9602059E-1,8.155746E-1,4.0442532E-1,-2.663365E-1,-5.7815254E-1,7.4511087E-1,1.5298856E0,6.6977787E-1,1.4620228E0,1.9763885E-2,-8.283422E-1,1.6339254E0,1.5574604E0,-1.3730499E-2,3.152574E-2,2.7364013E-1,-4.2598344E-2,-3.812627E-1,-5.911529E-2,-1.03952885E-1,2.4286823E-1,-1.29833E-1,1.1629895E-1,2.4329385E-2,4.086583E-1,2.592628E-1,-1.433034E-1,-8.518814E-2,6.7858696E-2],"split_indices":[1,4,15,0,0,0,7,4,0,7,0,0,0,7,6,2,2,6,1,2,1,5,4,7,1,0,0,0,0,0,0,0,0,0,0,0,0,0,0,0,0],"split_type":[0,0,0,0,0,0,0,0,0,0,0,0,0,0,0,0,0,0,0,0,0,0,0,0,0,0,0,0,0,0,0,0,0,0,0,0,0,0,0,0,0],"sum_hessian":[2.8524362E2,5.483885E0,2.7975974E2,1.4115927E0,4.0722923E0,1.6632782E0,2.7809647E2,2.365265E0,1.7070274E0,2.3203252E2,4.6063942E1,1.0002363E0,1.3650285E0,2.2307973E2,8.952785E0,6.088379E0,3.9975563E1,2.190398E2,4.039937E0,5.84541E0,3.1073747E0,2.0963879E0,3.9919908E0,8.985323E0,3.099024E1,1.6127101E2,5.776878E1,2.07048E0,1.9694569E0,4.4609995E0,1.3844104E0,1.491101E0,1.6162736E0,1.048548E0,1.0478399E0,1.4132297E0,2.578761E0,6.26794E0,2.7173834E0,2.0731077E1,1.0259161E1],"tree_param":{"num_deleted":"0","num_feature":"18","num_nodes":"41","size_leaf_vector":"1"}},{"base_weights":[2.0568515E-3,2.1422539E-2,-1.4722832E-1,3.953761E-3,3.4011415E-1,7.048567E-1,-3.0333617E-1,9.215027E-2,-8.346043E-2,-6.2367314E-1,6.904894E-1,2.7241132E-1,-8.525291E-3,3.8934815E-1,-4.323675E-1,4.1342836E-2,4.970322E-1,-5.6635335E-2,-7.238348E-1,-1.5892243E-2,-2.7178544E-1,-1.8591588E-2,9.671114E-1,7.851209E-1,-1.6106603E-1,-5.996528E-1,3.1762192E-1,-3.0691888E-2,3.7993512E-1,-2.9786396E-1,8.4076846E-1,-1.0489295E-1,2.9812092E-1,-2.828605E-1,-1.1698022E-2,-1.9141224E-1,2.0433268E-1,3.2390144E-2,3.561891E-1,3.0481088E-1,2.0882336E-2,4.5987418E-1,-7.9681826E-1,-1.8585065E-1,7.368478E-1,1.3883872E-3,-2.6166105E-1,-2.1648103E-2,2.7882928E-1,-1.9719802E-1,1.3015972E-1,-6.2094204E-2,2.9913723E-1,-1.3165537E-2,-1.542748E-1,3.1132168E-1,2.281445E-2,-6.3151315E-2,2.5299335E-1,-6.2997214E-2,-2.872305E-1,7.3869556E-2,2.62989E-1],"categories":[],"categories_nodes":[],"categories_segments":[],"categories_sizes":[],"default_left":[0,0,0,0,0,0,0,0,0,0,0,0,0,0,0,0,0,0,0,0,0,0,0,0,0,0,0,0,0,0,0,0,0,0,0,0,0,0,0,0,0,0,0,0,0,0,0,0,0,0,0,0,0,0,0,0,0,0,0,0,0,0,0],"id":40,"left_children":[1,3,5,7,9,11,13,15,17,19,21,-1,-1,23,25,27,29,31,33,-1,-1,35,37,39,-1,41,43,45,47,49,51,53,55,-1,-1,-1,-1,-1,-1,-1,-1,57,59,-1,61,-1,-1,-1,-1,-1,-1,-1,-1,-1,-1,-1,-1,-1,-1,-1,-1,-1,-1],"loss_changes":[8.257151E-1,1.4056182E0,4.576514E0,1.8626615E0,4.8615303E0,8.272526E-1,2.7083533E0,2.452942E0,2.0437899E0,6.0021806E-1,1.9985847E0,0E0,0E0,2.2502651E0,3.2555156E0,2.6440158E0,3.888744E0,2.0440044E0,6.824353E-1,0E0,0E0,2.088042E0,1.249485E0,5.73864E-1,0E0,4.6115313E0,2.4636736E0,2.6765876E0,4.789064E0,1.5367427E0,1.7721071E0,2.5804715E0,2.2761035E0,0E0,0E0,0E0,0E0,0E0,0E0,0E0,0E0,1.1600261E0,1.4482784E0,0E0,5.7551146E-2,0E0,0E0,0E0,0E0,0E0,0E0,0E0,0E0,0E0,0E0,0E0,0E0,0E0,0E0,0E0,0E0,0E0,0E0],"parents":[2147483647,0,0,1,1,2,2,3,3,4,4,5,5,6,6,7,7,8,8,9,9,10,10,13,13,14,14,15,15,16,16,17,17,18,18,21,21,22,22,23,23,25,25,26,26,27,27,28,28,29,29,30,30,31,31,32,32,41,41,42,42,44,44],"right_children":[2,4,6,8,10,12,14,16,18,20,22,-1,-1,24,26,28,30,32,34,-1,-1,36,38,40,-1,42,44,46,48,50,52,54,56,-1,-1,-1,-1,-1,-1,-1,-1,58,60,-1,62,-1,-1,-1,-1,-1,-1,-1,-1,-1,-1,-1,-1,-1,-1,-1,-1,-1,-1],"split_conditions":[1.36344E0,1.1764733E0,1.3545647E0,8.682356E-2,-5.5367583E-1,1.1557447E0,-1.0969746E0,7.939036E-1,1.6182693E0,-4.779877E-2,-5.1019263E-1,2.7241132E-1,-8.525291E-3,7.073798E-1,1.6513737E0,9.6217287E-1,-1.1815315E0,1.3382571E0,1.5982335E0,-1.5892243E-2,-2.7178544E-1,-3.350643E-1,-6.1211294E-1,6.4972985E-1,-1.6106603E-1,-1.2764993E0,-8.229046E-2,8.435695E-1,-1.6165677E-1,5.779713E-1,-1.2297677E0,1.1488888E0,-1.054798E0,-2.828605E-1,-1.1698022E-2,-1.9141224E-1,2.0433268E-1,3.2390144E-2,3.561891E-1,3.0481088E-1,2.0882336E-2,-1.4466484E-1,-7.6127106E-1,-1.8585065E-1,-7.133533E-1,1.3883872E-3,-2.6166105E-1,-2.1648103E-2,2.7882928E-1,-1.9719802E-1,1.3015972E-1,-6.2094204E-2,2.9913723E-1,-1.3165537E-2,-1.542748E-1,3.1132168E-1,2.281445E-2,-6.3151315E-2,2.5299335E-1,-6.2997214E-2,-2.872305E-1,7.3869556E-2,2.62989E-1],"split_indices":[6,6,1,0,7,11,0,6,8,2,2,0,0,10,1,7,0,9,1,0,0,5,4,7,0,5,0,7,6,11,4,7,5,0,0,0,0,0,0,0,0,8,4,0,8,0,0,0,0,0,0,0,0,0,0,0,0,0,0,0,0,0,0],"split_type":[0,0,0,0,0,0,0,0,0,0,0,0,0,0,0,0,0,0,0,0,0,0,0,0,0,0,0,0,0,0,0,0,0,0,0,0,0,0,0,0,0,0,0,0,0,0,0,0,0,0,0,0,0,0,0,0,0,0,0,0,0,0,0],"sum_hessian":[2.835238E2,2.5172575E2,3.1798065E1,2.3960446E2,1.21212845E1,4.3792996E0,2.7418766E1,1.1924156E2,1.2036291E2,3.023751E0,9.097533E0,3.2425086E0,1.1367911E0,3.9886827E0,2.3430082E1,1.0692586E2,1.23157E1,1.1656834E2,3.7945719E0,1.3936965E0,1.6300546E0,2.814852E0,6.2826815E0,2.901323E0,1.0873597E0,1.9320984E1,4.1090984E0,8.89181E1,1.8007765E1,3.7582147E0,8.557486E0,1.0323022E2,1.3338118E1,2.5895767E0,1.2049952E0,1.5397897E0,1.2750623E0,1.585714E0,4.6969676E0,1.8759066E0,1.0254164E0,2.8222666E0,1.6498718E1,1.1223979E0,2.9867008E0,8.629081E1,2.6272893E0,1.0356048E1,7.6517177E0,2.588361E0,1.1698536E0,1.0691645E0,7.488321E0,9.0804504E1,1.2425711E1,2.2318673E0,1.110625E1,1.1909995E0,1.6312671E0,4.041207E0,1.2457511E1,1.2745937E0,1.712107E0],"tree_param":{"num_deleted":"0","num_feature":"18","num_nodes":"63","size_leaf_vector":"1"}},{"base_weights":[3.8304909E-3,1.9766939E-1,-9.0543E-3,3.6104265E-1,-3.9209595E-1,-3.2295775E-1,7.87354E-3,5.005056E-1,-1.9860002E-1,-1.7863047E-1,7.843368E-3,1.4741428E-1,-5.484302E-1,5.1692456E-1,-2.4788338E-3,6.4474934E-1,-7.224658E-2,2.3682074E-1,-1.9706492E-1,-2.2834036E-3,-1.0340232E0,7.683739E-1,-7.360477E-2,-3.002712E-1,1.7225178E-2,7.778773E-1,-7.558983E-2,-1.980491E-1,3.7347752E-1,-9.026026E-2,-3.5041618E-1,5.981892E-2,2.7432534E-1,-5.10092E-1,1.0525311E-1,3.7529737E-1,2.341746E-3,-1.5498298E-2,2.7742472E-1,-8.4043466E-2,2.2700898E-1,-2.3875488E-1,3.1752203E-2,-1.8326312E-1,1.1408765E-1,-1.9332828E-1,2.016507E-1,-1.8834753E-1,4.109397E-3],"categories":[],"categories_nodes":[],"categories_segments":[],"categories_sizes":[],"default_left":[0,0,0,0,0,0,0,1,0,0,0,0,0,0,0,1,0,0,0,0,0,0,0,0,0,0,0,0,0,0,0,0,0,0,0,0,0,0,0,0,0,0,0,0,0,0,0,0,0],"id":41,"left_children":[1,3,5,7,9,11,13,15,-1,-1,-1,17,19,21,23,25,-1,-1,-1,27,29,31,-1,33,35,37,-1,-1,39,-1,-1,-1,-1,41,43,45,47,-1,-1,-1,-1,-1,-1,-1,-1,-1,-1,-1,-1],"loss_changes":[7.0356387E-1,1.833216E0,1.4076215E0,2.3672035E0,3.8023096E-1,1.5183077E0,1.3286155E0,1.5589359E0,0E0,0E0,0E0,3.193209E0,2.483632E0,1.1516575E0,1.459463E0,1.5402617E0,0E0,0E0,0E0,1.5849425E0,1.3594675E-1,1.5175629E-1,0E0,1.3670781E0,1.2430477E0,1.272172E0,0E0,0E0,1.2350869E0,0E0,0E0,0E0,0E0,1.9047675E0,1.4322636E0,3.2510653E0,1.6195073E0,0E0,0E0,0E0,0E0,0E0,0E0,0E0,0E0,0E0,0E0,0E0,0E0],"parents":[2147483647,0,0,1,1,2,2,3,3,4,4,5,5,6,6,7,7,11,11,12,12,13,13,14,14,15,15,19,19,20,20,21,21,23,23,24,24,25,25,28,28,33,33,34,34,35,35,36,36],"right_children":[2,4,6,8,10,12,14,16,-1,-1,-1,18,20,22,24,26,-1,-1,-1,28,30,32,-1,34,36,38,-1,-1,40,-1,-1,-1,-1,42,44,46,48,-1,-1,-1,-1,-1,-1,-1,-1,-1,-1,-1,-1],"split_conditions":[-1.566283E0,1.6386602E0,-1.2566867E0,1.4434965E0,4.2314613E-1,1.4620228E0,-9.75894E-1,-1.4173135E0,-1.9860002E-1,-1.7863047E-1,7.843368E-3,-9.40734E-3,-1.3844978E0,7.073798E-1,1.2582958E0,-6.512401E-1,-7.224658E-2,2.3682074E-1,-1.9706492E-1,-6.08213E-1,-1.0356101E0,-8.712702E-2,-7.360477E-2,3.3816162E-1,-2.2733425E-1,-1.5411618E0,-7.558983E-2,-1.980491E-1,-1.7610071E-3,-9.026026E-2,-3.5041618E-1,5.981892E-2,2.7432534E-1,7.612434E-1,-6.008058E-1,-4.0125498E-1,1.0410291E-1,-1.5498298E-2,2.7742472E-1,-8.4043466E-2,2.2700898E-1,-2.3875488E-1,3.1752203E-2,-1.8326312E-1,1.1408765E-1,-1.9332828E-1,2.016507E-1,-1.8834753E-1,4.109397E-3],"split_indices":[6,1,6,3,7,1,16,15,0,0,0,5,6,10,1,16,0,0,0,5,8,3,0,7,15,5,0,0,9,0,0,0,0,5,2,3,15,0,0,0,0,0,0,0,0,0,0,0,0],"split_type":[0,0,0,0,0,0,0,0,0,0,0,0,0,0,0,0,0,0,0,0,0,0,0,0,0,0,0,0,0,0,0,0,0,0,0,0,0,0,0,0,0,0,0,0,0,0,0,0,0],"sum_hessian":[2.7998233E2,1.6557024E1,2.634253E2,1.32691145E1,3.287911E0,1.2553804E1,2.508715E2,1.2126742E1,1.1423714E0,1.9272567E0,1.3606541E0,4.17995E0,8.373855E0,4.0248933E0,2.468466E2,1.02605715E1,1.8661715E0,2.334821E0,1.845129E0,4.4140596E0,3.9597945E0,3.0205195E0,1.0043737E0,1.4435759E1,2.3241084E2,9.049581E0,1.2109907E0,1.3295023E0,3.0845573E0,1.1135235E0,2.846271E0,1.1000632E0,1.9204563E0,9.34351E0,5.0922484E0,8.30838E0,2.2410246E2,1.4587508E0,7.59083E0,1.2394716E0,1.8450859E0,6.1828957E0,3.1606145E0,1.0742153E0,4.018033E0,1.6094271E0,6.698953E0,3.006117E0,2.2109636E2],"tree_param":{"num_deleted":"0","num_feature":"18","num_nodes":"49","size_leaf_vector":"1"}},{"base_weights":[-6.563429E-4,1.6164792E-1,-4.875473E-3,1.2828255E-2,-1.2677744E-1,-2.5704917E-2,1.7521815E-1,-3.3670643E-1,5.025211E-1,2.2714369E-2,-1.8245903E-1,6.257938E-1,6.667835E-2,-4.627518E-1,1.278264E-1,-2.8436613E-1,7.8732955E-1,7.4631125E-2,-2.072074E-1,2.1949711E-1,-3.3031663E-1,-3.458314E-1,1.01587E0,6.864284E-1,3.963791E-3,-3.3842912E-1,-3.4093395E-1,2.4519469E-1,-2.7026382E-1,-2.1375199E-1,7.850646E-2,3.443491E-1,5.659039E-2,1.032509E-2,2.5050578E-1,-1.6071679E-1,9.474111E-2,-4.7244664E-2,2.0053011E-1,-1.23477116E-1,1.5793835E-1,-2.3715128E-1,6.439416E-2,3.8157907E-1,4.919867E-3,2.9737344E-1,3.3134308E-2,4.1186143E-2,-9.817474E-2,4.9027912E-2,-1.3773625E-1,-1.7415708E-1,1.0323893E-1,1.3691238E-1,-1.2926583E-1],"categories":[],"categories_nodes":[],"categories_segments":[],"categories_sizes":[],"default_left":[0,0,0,0,0,0,0,0,0,0,0,0,0,0,0,0,0,0,0,0,1,0,0,0,0,0,0,0,0,0,0,0,0,0,0,0,0,0,0,0,0,0,0,0,0,0,0,0,0,0,0,0,0,0,0],"id":42,"left_children":[1,-1,3,5,7,9,11,13,15,17,19,21,23,25,27,29,31,33,35,37,39,41,43,45,47,-1,49,-1,51,-1,-1,-1,53,-1,-1,-1,-1,-1,-1,-1,-1,-1,-1,-1,-1,-1,-1,-1,-1,-1,-1,-1,-1,-1,-1],"loss_changes":[6.3597775E-1,0E0,5.9961385E-1,1.5241587E0,4.823365E0,1.5005285E0,2.2423155E0,1.6410072E0,2.288821E0,1.8240857E0,2.8442745E0,3.7423568E0,1.5036279E0,1.3552828E0,2.0186002E0,9.306669E-1,1.787116E0,3.773414E0,5.0101776E0,2.32953E0,2.6186826E0,9.9439263E-1,1.6779923E0,5.147804E-1,1.6434832E0,0E0,1.2420325E0,0E0,1.1345243E0,0E0,0E0,0E0,8.542791E-1,0E0,0E0,0E0,0E0,0E0,0E0,0E0,0E0,0E0,0E0,0E0,0E0,0E0,0E0,0E0,0E0,0E0,0E0,0E0,0E0,0E0,0E0],"parents":[2147483647,0,0,2,2,3,3,4,4,5,5,6,6,7,7,8,8,9,9,10,10,11,11,12,12,13,13,14,14,15,15,16,16,17,17,18,18,19,19,20,20,21,21,22,22,23,23,24,24,26,26,28,28,32,32],"right_children":[2,-1,4,6,8,10,12,14,16,18,20,22,24,26,28,30,32,34,36,38,40,42,44,46,48,-1,50,-1,52,-1,-1,-1,54,-1,-1,-1,-1,-1,-1,-1,-1,-1,-1,-1,-1,-1,-1,-1,-1,-1,-1,-1,-1,-1,-1],"split_conditions":[-1.5474296E0,1.6164792E-1,1.1493767E0,5.911493E-1,8.6307746E-1,1.8898545E-1,6.511738E-1,8.155746E-1,-8.143273E-1,1.0179502E0,-7.476014E-1,1.4346906E0,-1.5711296E0,1.189393E0,-4.384872E-1,1.7156074E0,5.0787336E-1,8.901272E-1,2.5668824E-1,-1.0761967E0,-4.2406243E-1,-4.539453E-1,1.6116399E0,-8.763576E-2,6.859551E-1,-3.3842912E-1,-1.0065328E0,2.4519469E-1,1.3149688E0,-2.1375199E-1,7.850646E-2,3.443491E-1,1.3287563E0,1.032509E-2,2.5050578E-1,-1.6071679E-1,9.474111E-2,-4.7244664E-2,2.0053011E-1,-1.23477116E-1,1.5793835E-1,-2.3715128E-1,6.439416E-2,3.8157907E-1,4.919867E-3,2.9737344E-1,3.3134308E-2,4.1186143E-2,-9.817474E-2,4.9027912E-2,-1.3773625E-1,-1.7415708E-1,1.0323893E-1,1.3691238E-1,-1.2926583E-1],"split_indices":[12,0,3,3,5,3,3,7,4,5,6,1,4,3,8,3,2,5,2,6,16,4,1,7,6,0,5,0,8,0,0,0,5,0,0,0,0,0,0,0,0,0,0,0,0,0,0,0,0,0,0,0,0,0,0],"split_type":[0,0,0,0,0,0,0,0,0,0,0,0,0,0,0,0,0,0,0,0,0,0,0,0,0,0,0,0,0,0,0,0,0,0,0,0,0,0,0,0,0,0,0,0,0,0,0,0,0,0,0,0,0,0,0],"sum_hessian":[2.7725555E2,1.1682322E0,2.760873E2,2.4185732E2,3.4229984E1,1.9615404E2,4.570329E1,2.6016153E1,8.213832E0,1.5051654E2,4.5637486E1,7.9471445E0,3.775614E1,2.0466618E1,5.5495358E0,2.1832793E0,6.0305524E0,1.2334127E2,2.7175278E1,1.2142674E1,3.3494812E1,2.3090496E0,5.638095E0,2.555658E0,3.5200485E1,1.8889606E0,1.8577658E1,1.645848E0,3.9036877E0,1.0529073E0,1.1303719E0,3.6560888E0,2.3744636E0,1.1813861E2,5.202659E0,1.6676245E1,1.0499033E1,6.9531837E0,5.189491E0,3.1067375E1,2.427438E0,1.0586934E0,1.2503562E0,4.271221E0,1.3668739E0,1.1997607E0,1.3558973E0,2.5515299E1,9.685187E0,3.454188E0,1.5123469E1,2.6304674E0,1.2732203E0,1.3396255E0,1.034838E0],"tree_param":{"num_deleted":"0","num_feature":"18","num_nodes":"55","size_leaf_vector":"1"}},{"base_weights":[3.4122898E-3,-3.4894818E-1,9.667852E-3,-6.146728E-1,8.691923E-2,5.83354E-1,2.328612E-3,5.3132055E-3,-2.6172432E-1,3.4765876E-3,2.7222577E-1,-2.2547258E-1,1.0307117E-2,1.6012898E-2,-1.6707116E-1,6.9795246E-3,4.2494088E-1,-4.714547E-4,1.06827624E-1,-8.416873E-2,1.9688179E-1],"categories":[],"categories_nodes":[],"categories_segments":[],"categories_sizes":[],"default_left":[0,0,0,0,0,0,0,0,0,0,0,0,1,1,0,0,0,0,0,0,0],"id":43,"left_children":[1,3,5,7,-1,9,11,-1,-1,-1,-1,-1,13,15,-1,17,19,-1,-1,-1,-1],"loss_changes":[6.0906035E-1,9.961423E-1,1.1395212E0,6.224865E-1,0E0,6.2293327E-1,1.6230642E0,0E0,0E0,0E0,0E0,0E0,8.721293E-1,9.760807E-1,0E0,7.777028E-1,1.1162773E0,0E0,0E0,0E0,0E0],"parents":[2147483647,0,0,1,1,2,2,3,3,5,5,6,6,12,12,13,13,15,15,16,16],"right_children":[2,4,6,8,-1,10,12,-1,-1,-1,-1,-1,14,16,-1,18,20,-1,-1,-1,-1],"split_conditions":[-2.1521344E0,1.4149666E0,-2.0672748E0,-8.874531E-1,8.691923E-2,4.449117E-1,-1.8619373E0,5.3132055E-3,-2.6172432E-1,3.4765876E-3,2.7222577E-1,-2.2547258E-1,1.1324431E0,4.6611782E-2,-1.6707116E-1,1.9876429E0,-4.1091785E-1,-4.714547E-4,1.06827624E-1,-8.416873E-2,1.9688179E-1],"split_indices":[7,10,7,3,0,9,7,0,0,0,0,0,14,14,0,4,2,0,0,0,0],"split_type":[0,0,0,0,0,0,0,0,0,0,0,0,0,0,0,0,0,0,0,0,0],"sum_hessian":[2.7378598E2,3.820221E0,2.6996576E2,2.7243378E0,1.0958833E0,2.4187043E0,2.6754706E2,1.0585096E0,1.6658282E0,1.2496467E0,1.1690577E0,1.8257794E0,2.6572128E2,2.6403702E2,1.684275E0,2.5932547E2,4.7115297E0,2.540972E2,5.2282696E0,1.1108632E0,3.6006668E0],"tree_param":{"num_deleted":"0","num_feature":"18","num_nodes":"21","size_leaf_vector":"1"}},{"base_weights":[2.107291E-3,6.237243E-3,-1.5879628E-1,-8.292767E-4,3.046444E-1,-7.716166E-3,3.3089975E-1,5.258003E-1,-1.15798526E-1,3.3541266E-2,-6.859809E-2,-1.4852977E-1,2.616752E-1,-1.0634043E-1,2.5082138E-1,-3.3830903E-3,3.2023853E-1,3.7545976E-1,-1.3970241E-1,7.4689626E-3,-2.1446408E-1,-1.0200911E-1,1.6509965E-1,3.034971E-1,3.4345448E-2,-1.5851954E-1,-1.341298E-2],"categories":[],"categories_nodes":[],"categories_segments":[],"categories_sizes":[],"default_left":[0,0,0,0,0,0,0,0,0,0,0,0,0,0,0,0,0,0,0,0,0,0,0,0,0,0,0],"id":44,"left_children":[1,3,-1,5,7,9,11,13,-1,15,17,-1,-1,-1,-1,19,21,23,25,-1,-1,-1,-1,-1,-1,-1,-1],"loss_changes":[6.0466516E-1,5.7566106E-1,0E0,6.1381215E-1,1.1675177E0,6.6314864E-1,2.8753233E0,1.7184244E0,0E0,1.668325E0,3.418307E0,0E0,0E0,0E0,0E0,2.8450487E0,2.9187188E0,2.3720863E0,3.3960586E0,0E0,0E0,0E0,0E0,0E0,0E0,0E0,0E0],"parents":[2147483647,0,0,1,1,3,3,4,4,5,5,6,6,7,7,9,9,10,10,15,15,16,16,17,17,18,18],"right_children":[2,4,-1,6,8,10,12,14,-1,16,18,-1,-1,-1,-1,20,22,24,26,-1,-1,-1,-1,-1,-1,-1,-1],"split_conditions":[-1.5335909E0,1.9887357E0,-1.5879628E-1,1.6934067E0,6.6977787E-1,2.6742452E-1,-4.1190073E-1,-8.0202043E-1,-1.15798526E-1,1.3918722E0,1.3406734E0,-1.4852977E-1,2.616752E-1,-1.0634043E-1,2.5082138E-1,1.2507895E0,-8.994175E-1,-4.484337E-1,-9.3068767E-1,7.4689626E-3,-2.1446408E-1,-1.0200911E-1,1.6509965E-1,3.034971E-1,3.4345448E-2,-1.5851954E-1,-1.341298E-2],"split_indices":[12,7,0,0,2,7,4,2,0,5,1,0,0,0,0,5,4,9,5,0,0,0,0,0,0,0,0],"split_type":[0,0,0,0,0,0,0,0,0,0,0,0,0,0,0,0,0,0,0,0,0,0,0,0,0,0,0],"sum_hessian":[2.729981E2,2.718735E2,1.1245801E0,2.665584E2,5.315095E0,2.6209393E2,4.464484E0,4.2067046E0,1.1083907E0,1.564933E2,1.0560064E2,1.8013707E0,2.6631134E0,1.0592012E0,3.1475031E0,1.3951329E2,1.6980015E1,1.3984541E1,9.1616104E1,1.351082E2,4.405091E0,4.264618E0,1.2715397E1,3.231189E0,1.0753351E1,1.7096611E1,7.451949E1],"tree_param":{"num_deleted":"0","num_feature":"18","num_nodes":"27","size_leaf_vector":"1"}},{"base_weights":[1.7833126E-3,5.561481E-2,-3.966747E-2,1.4399341E-2,6.662511E-1,5.6896103E-3,-3.476722E-1,6.1180346E-2,-4.3259367E-1,-3.6100823E-2,3.797025E-1,4.8821983E-1,-2.3167381E-2,4.5509398E-1,-4.8441097E-1,-1.2342819E-2,4.4272646E-1,1.3257752E-1,-6.437153E-1,1.3570146E-1,-1.789664E-1,8.1347024E-1,-1.0868418E-1,-8.4948644E-2,2.2229457E-1,-1.2859696E-2,2.1934624E-1,-7.838825E-1,-1.2232913E-2,-7.5021726E-1,2.7466739E-2,-3.4892425E-1,5.8014584E-1,-8.313942E-1,9.840513E-2,-5.8060464E-2,3.4329045E-1,-1.5528631E-1,1.2716897E-1,1.385727E-2,-3.2104373E-1,-1.0480376E-1,5.914919E-1,-4.6851065E-2,-9.6871096E-1,-2.3786475E-1,2.9545593E-1,-2.774799E-1,-2.3875972E-2,3.455273E-2,-1.026208E-1,-2.3280446E-1,7.341156E-2,2.1790689E-1,-8.448323E-2,-7.6463655E-2,-3.436015E-1,-1.9805627E-2,1.358542E-1,-1.9207153E-2,-1.8225248E-1,1.1215258E-1,-1.225251E-1,2.3009782E-1,-2.5232118E-2,-1.2435279E-1,1.0018063E-1,-9.789481E-2,-3.4903952E-1,1.6535544E-1,-1.498321E-1],"categories":[],"categories_nodes":[],"categories_segments":[],"categories_sizes":[],"default_left":[0,0,0,0,0,0,0,0,0,0,0,0,0,0,0,0,0,0,0,0,0,0,0,0,0,0,0,0,0,0,0,0,0,0,0,0,0,0,0,0,0,0,0,0,0,0,0,0,0,0,0,0,0,0,0,0,0,0,0,0,0,0,0,0,0,0,0,0,0,0,0],"id":45,"left_children":[1,3,5,7,9,11,13,15,17,19,-1,21,23,25,27,29,31,-1,33,-1,-1,35,37,39,41,-1,-1,43,45,47,49,51,53,55,-1,-1,-1,-1,-1,57,59,61,63,65,67,-1,69,-1,-1,-1,-1,-1,-1,-1,-1,-1,-1,-1,-1,-1,-1,-1,-1,-1,-1,-1,-1,-1,-1,-1,-1],